{"type":"LSTM","options":{"inputSize":28,"inputRange":28,"hiddenLayers":[20,20],"outputSize":28,"decayRate":0.999,"smoothEps":1e-8,"regc":0.000001,"clipval":5,"maxPredictionLength":2000,"dataFormatter":{"indexTable":{"h":0,"e":1,"l":2,"o":3,"g":4,"r":5,"t":6,"d":7," ":8,"m":9,"n":10,"i":11,"a":12,"f":13,"y":14,"w":15,"b":16,"s":17,"c":18,"u":19,"k":20,"M":21,"B":22,"N":23,"A":24,"stop-input":25,"start-output":26,"unrecognized":27},"characterTable":{"0":"h","1":"e","2":"l","3":"o","4":"g","5":"r","6":"t","7":"d","8":" ","9":"m","10":"n","11":"i","12":"a","13":"f","14":"y","15":"w","16":"b","17":"s","18":"c","19":"u","20":"k","21":"M","22":"B","23":"N","24":"A","25":null,"26":null,"27":null},"values":["hello","greet","good morning","good afternoon","good day","hi","hey","yo","howdy","bye","finish","goodbye","cya","see you later","goodnight","gn","who is your maker","askMaker","who is your creator","who created you","who made you","who are you","askBotName","what is your name","how old are you","askBotAge"],"characters":["h","e","l","o","g","r","t","d"," ","m","n","i","a","f","y","w","b","s","c","u","k","M","B","N","A","stop-input","start-output","unrecognized"],"specialIndexes":[25,26,27]}},"input":{"rows":29,"columns":28,"weights":{"0":2.218186140060425,"1":-1.5330305099487305,"2":4.403719902038574,"3":1.984741449356079,"4":-2.312854528427124,"5":-0.09460309892892838,"6":-1.027958869934082,"7":2.4001243114471436,"8":-2.4313135147094727,"9":-0.5590096116065979,"10":0.6939888596534729,"11":-2.8901634216308594,"12":1.9071671962738037,"13":-0.23335543274879456,"14":-0.6752051711082458,"15":-0.024562591686844826,"16":-0.3800061047077179,"17":1.7478125095367432,"18":2.035897731781006,"19":1.9442510604858398,"20":0.20533545315265656,"21":3.8996260166168213,"22":1.270750641822815,"23":-0.2080947607755661,"24":1.5210623741149902,"25":-1.3313454389572144,"26":-0.33807629346847534,"27":2.201916456222534,"28":0.7618380784988403,"29":0.2717210054397583,"30":0.2219909131526947,"31":-1.135688304901123,"32":1.3450967073440552,"33":-0.33654680848121643,"34":-2.0790648460388184,"35":0.718674898147583,"36":4.505941867828369,"37":2.5007548332214355,"38":-3.8000500202178955,"39":4.179306983947754,"40":-0.8011741638183594,"41":-3.129051446914673,"42":-0.45911094546318054,"43":-4.7444233894348145,"44":-7.245537757873535,"45":-4.304734706878662,"46":-0.2861250340938568,"47":-4.688346862792969,"48":-2.3382935523986816,"49":-0.009585093706846237,"50":-2.6945724487304688,"51":-1.7318178415298462,"52":2.976109027862549,"53":1.2380006313323975,"54":1.8741650581359863,"55":-0.8084241151809692,"56":0.2500052750110626,"57":4.109255313873291,"58":2.5346086025238037,"59":3.8422060012817383,"60":4.806057929992676,"61":-3.711059331893921,"62":-0.8644094467163086,"63":-0.9269657135009766,"64":-0.29204559326171875,"65":-0.37863004207611084,"66":-2.646648645401001,"67":-4.8813629150390625,"68":0.3088846504688263,"69":0.18702179193496704,"70":1.253132700920105,"71":1.1507806777954102,"72":-0.966982901096344,"73":0.2676233947277069,"74":0.9598740935325623,"75":-2.744598865509033,"76":-1.139933705329895,"77":-3.582078456878662,"78":-2.1732590198516846,"79":-0.8819690942764282,"80":4.792290210723877,"81":-0.03429854288697243,"82":-2.075934410095215,"83":0.3583948016166687,"84":-1.2029597759246826,"85":-0.17957592010498047,"86":1.2179425954818726,"87":-0.07375691086053848,"88":-8.994215965270996,"89":-4.109755516052246,"90":2.5090582370758057,"91":8.578239440917969,"92":-6.094338417053223,"93":-6.844078540802002,"94":1.414293885231018,"95":-4.976821422576904,"96":2.2459051609039307,"97":2.3820414543151855,"98":-5.977522373199463,"99":-0.9391183257102966,"100":-2.5668108463287354,"101":2.5460758209228516,"102":-0.017180822789669037,"103":2.4672412872314453,"104":0.9434004426002502,"105":0.013809625059366226,"106":-0.4917006194591522,"107":2.5622076988220215,"108":-4.016932964324951,"109":-3.740182399749756,"110":-8.512091636657715,"111":1.7333308458328247,"112":4.47829008102417,"113":-1.3481152057647705,"114":-0.6354873180389404,"115":-2.3426225185394287,"116":-1.1562895774841309,"117":-3.082432508468628,"118":1.1966115236282349,"119":-0.08403734862804413,"120":-8.621506690979004,"121":-2.126293182373047,"122":-0.5541517734527588,"123":1.5631325244903564,"124":0.3187882900238037,"125":-3.5003981590270996,"126":0.4653014540672302,"127":1.809051752090454,"128":2.297197103500366,"129":1.9805669784545898,"130":-0.7837414145469666,"131":4.512428283691406,"132":-0.8555127382278442,"133":0.8528248071670532,"134":-0.6836254000663757,"135":1.5355744361877441,"136":1.2949111461639404,"137":-3.2238175868988037,"138":-4.656062602996826,"139":-4.356434345245361,"140":-1.7583191394805908,"141":-3.5796403884887695,"142":-5.612732887268066,"143":2.7901933193206787,"144":3.54064679145813,"145":4.92327880859375,"146":-0.6406590938568115,"147":-3.728026866912842,"148":-8.208046913146973,"149":-5.808948993682861,"150":1.673642635345459,"151":-0.22367267310619354,"152":1.5074849128723145,"153":-1.3399685621261597,"154":-3.208293914794922,"155":-9.50256633758545,"156":2.1194214820861816,"157":-0.40394672751426697,"158":-5.8548688888549805,"159":8.099421501159668,"160":0.5545490384101868,"161":-3.088055372238159,"162":5.925877094268799,"163":-2.3722782135009766,"164":0.20712782442569733,"165":3.937227964401245,"166":5.5601887702941895,"167":-4.118448257446289,"168":-3.6438114643096924,"169":1.7237093448638916,"170":-4.422410488128662,"171":-0.5966944694519043,"172":-4.928733825683594,"173":5.64458703994751,"174":-6.100931167602539,"175":1.826978087425232,"176":3.74949049949646,"177":-1.737014651298523,"178":-5.386350154876709,"179":0.8441102504730225,"180":0.23676928877830505,"181":0.9144929647445679,"182":-1.827886700630188,"183":4.013481140136719,"184":3.589217185974121,"185":5.54086446762085,"186":-2.519263505935669,"187":3.289576292037964,"188":1.7178667783737183,"189":2.3365602493286133,"190":2.108795642852783,"191":-2.4494011402130127,"192":-4.887139320373535,"193":-0.7663916945457458,"194":0.7640729546546936,"195":-0.6752026081085205,"196":4.0772600173950195,"197":1.41808021068573,"198":1.6698296070098877,"199":-3.1995744705200195,"200":-0.3951895236968994,"201":3.032409429550171,"202":-0.15830954909324646,"203":-2.320389747619629,"204":-1.7744624614715576,"205":3.6968166828155518,"206":-4.479916572570801,"207":0.4567795991897583,"208":3.597301959991455,"209":0.037875887006521225,"210":-4.131484508514404,"211":-6.295856952667236,"212":-7.451068878173828,"213":-2.562615394592285,"214":-1.09955632686615,"215":5.202183246612549,"216":-5.444450855255127,"217":1.8512064218521118,"218":9.480480194091797,"219":-3.9321064949035645,"220":-1.816765308380127,"221":5.451700210571289,"222":-3.0418171882629395,"223":4.471388816833496,"224":5.864733695983887,"225":4.295923233032227,"226":0.03730839490890503,"227":1.718198537826538,"228":0.17517931759357452,"229":-2.1331562995910645,"230":2.732501268386841,"231":-8.34853458404541,"232":0.45236736536026,"233":-6.497226715087891,"234":-1.8672147989273071,"235":-3.706407308578491,"236":-4.2346086502075195,"237":-7.271520614624023,"238":-4.727648735046387,"239":1.018550992012024,"240":1.7665681838989258,"241":-3.6585633754730225,"242":-2.1314399242401123,"243":0.2365635484457016,"244":4.975327014923096,"245":-1.2784955501556396,"246":-4.845972537994385,"247":-5.183831691741943,"248":2.523138999938965,"249":0.020891977474093437,"250":0.6838306784629822,"251":-4.488193511962891,"252":3.5379133224487305,"253":-2.170839309692383,"254":8.38992977142334,"255":-0.19244113564491272,"256":6.889942169189453,"257":4.318904876708984,"258":4.5674028396606445,"259":4.310940742492676,"260":5.79916524887085,"261":6.490253448486328,"262":0.7594847083091736,"263":-4.5025763511657715,"264":-2.7046287059783936,"265":-2.798097610473633,"266":9.265937805175781,"267":4.214574337005615,"268":-0.9854052662849426,"269":6.032512664794922,"270":1.221172571182251,"271":-3.0539543628692627,"272":-0.8696588277816772,"273":-0.8979925513267517,"274":6.294128894805908,"275":1.0542479753494263,"276":-3.0728304386138916,"277":-1.0657590627670288,"278":2.6498563289642334,"279":-4.537908554077148,"280":2.1397745609283447,"281":-4.3775315284729,"282":7.674196243286133,"283":11.869645118713379,"284":-12.088534355163574,"285":3.518892288208008,"286":3.9506211280822754,"287":5.0078444480896,"288":1.580859899520874,"289":8.734578132629395,"290":2.3281071186065674,"291":11.93165397644043,"292":5.565848350524902,"293":4.153029441833496,"294":-6.143666744232178,"295":-3.8000075817108154,"296":-18.287199020385742,"297":-5.721240997314453,"298":-1.1415157318115234,"299":4.1451945304870605,"300":7.400779724121094,"301":-3.994009494781494,"302":-2.8734471797943115,"303":6.1108574867248535,"304":21.73475456237793,"305":-1.052186369895935,"306":-1.7755018472671509,"307":12.305439949035645,"308":1.3794245719909668,"309":-0.16890589892864227,"310":-4.108002185821533,"311":-0.37791508436203003,"312":-8.41543197631836,"313":-0.2048341929912567,"314":3.6269125938415527,"315":1.8259696960449219,"316":2.6412928104400635,"317":-0.5779476165771484,"318":-11.001358985900879,"319":-3.028639554977417,"320":-1.336438775062561,"321":0.39258623123168945,"322":2.340562582015991,"323":2.1280672550201416,"324":3.3495099544525146,"325":-1.1500624418258667,"326":-4.172554969787598,"327":7.7065324783325195,"328":1.314719796180725,"329":2.1082651615142822,"330":-2.908754825592041,"331":-0.8112133145332336,"332":-5.316133975982666,"333":1.815513014793396,"334":-4.314506530761719,"335":-2.501481294631958,"336":1.6572787761688232,"337":3.050567626953125,"338":-3.4231271743774414,"339":-3.054080009460449,"340":1.9151663780212402,"341":2.2531702518463135,"342":0.5585795640945435,"343":-0.9047083854675293,"344":8.804838180541992,"345":1.806894302368164,"346":0.03639036417007446,"347":-1.2939857244491577,"348":-2.632275104522705,"349":-0.6232775449752808,"350":7.07971715927124,"351":-4.573770999908447,"352":-0.2693184018135071,"353":2.724080801010132,"354":3.943755626678467,"355":1.0821505784988403,"356":2.926074743270874,"357":-3.0390546321868896,"358":2.5912797451019287,"359":-0.8489277362823486,"360":-4.410095691680908,"361":0.28593185544013977,"362":1.9845117330551147,"363":1.0620300769805908,"364":-2.4320425987243652,"365":-2.6209535598754883,"366":0.8114989399909973,"367":0.8697602152824402,"368":0.236082524061203,"369":-0.9438546299934387,"370":-4.575325012207031,"371":-1.4481090307235718,"372":5.356774806976318,"373":1.5641287565231323,"374":-2.207724094390869,"375":-1.3139972686767578,"376":-1.1242539882659912,"377":-0.4655989110469818,"378":0.6572906970977783,"379":5.413079738616943,"380":-0.678483784198761,"381":1.5691391229629517,"382":-3.1228346824645996,"383":-3.3832757472991943,"384":2.0442440509796143,"385":-0.3004281520843506,"386":-1.1351755857467651,"387":-4.155726432800293,"388":5.58434534072876,"389":2.4320321083068848,"390":0.10981679707765579,"391":1.399547815322876,"392":2.9209377765655518,"393":9.534070014953613,"394":-0.28661757707595825,"395":10.40251350402832,"396":-1.4685089588165283,"397":0.1215226799249649,"398":-7.591317653656006,"399":3.5002405643463135,"400":9.515172004699707,"401":-8.876545906066895,"402":-4.594703197479248,"403":-4.416811466217041,"404":-6.876242160797119,"405":-4.146518707275391,"406":-3.799203872680664,"407":-4.099325656890869,"408":-2.016247034072876,"409":-3.1974334716796875,"410":0.5054614543914795,"411":-10.348541259765625,"412":0.16505436599254608,"413":-3.636557102203369,"414":3.337761402130127,"415":-2.469947576522827,"416":1.7455040216445923,"417":-11.684008598327637,"418":-2.0476322174072266,"419":-4.495207786560059,"420":0.2913750410079956,"421":-4.356223106384277,"422":-0.8968532085418701,"423":-0.267625629901886,"424":0.8996619582176208,"425":-1.9101279973983765,"426":1.299612045288086,"427":-1.7829922437667847,"428":-3.1897084712982178,"429":3.694254159927368,"430":3.1734023094177246,"431":0.2713019847869873,"432":3.1130969524383545,"433":-4.87755012512207,"434":0.22428938746452332,"435":0.5428101420402527,"436":1.8601986169815063,"437":0.41074231266975403,"438":2.33990740776062,"439":3.9111907482147217,"440":-2.1223278045654297,"441":4.610795497894287,"442":-0.11466136574745178,"443":-0.7065833806991577,"444":-1.4841161966323853,"445":1.821372151374817,"446":-0.4769561290740967,"447":4.209512233734131,"448":9.173959732055664,"449":4.870754718780518,"450":-1.3998621702194214,"451":2.3322603702545166,"452":-0.5302895903587341,"453":-11.190122604370117,"454":10.740726470947266,"455":2.2703890800476074,"456":3.4537036418914795,"457":-1.6977202892303467,"458":-2.423739194869995,"459":12.223868370056152,"460":3.7970314025878906,"461":0.6152135729789734,"462":2.9975268840789795,"463":-1.2559125423431396,"464":-3.1520040035247803,"465":-12.958626747131348,"466":-1.6344674825668335,"467":-8.16228199005127,"468":7.405575275421143,"469":4.206727027893066,"470":-0.018489759415388107,"471":-13.209343910217285,"472":-2.4278018474578857,"473":9.480159759521484,"474":-2.3857421875,"475":2.7998292446136475,"476":-1.3258813619613647,"477":6.428896427154541,"478":1.7532751560211182,"479":3.3477680683135986,"480":5.370831489562988,"481":-5.275710105895996,"482":1.6237987279891968,"483":-4.3864665031433105,"484":15.801033973693848,"485":-5.37507438659668,"486":-5.156698226928711,"487":-13.246082305908203,"488":-2.074666738510132,"489":4.274878025054932,"490":15.836715698242188,"491":12.476396560668945,"492":0.20388522744178772,"493":2.8909358978271484,"494":4.5749335289001465,"495":10.36195182800293,"496":4.133798599243164,"497":-1.1899572610855103,"498":0.5061824917793274,"499":-8.375194549560547,"500":2.228410243988037,"501":11.568893432617188,"502":0.8300334811210632,"503":2.508606433868408,"504":4.937809944152832,"505":0.25586414337158203,"506":-1.3136460781097412,"507":0.22846272587776184,"508":-0.3853917717933655,"509":-0.4904220998287201,"510":-4.112978458404541,"511":-5.26193904876709,"512":-3.812600612640381,"513":2.3683812618255615,"514":-7.706112384796143,"515":2.576780319213867,"516":-5.882451057434082,"517":-4.49762487411499,"518":-4.522105693817139,"519":0.7848787903785706,"520":-4.766713619232178,"521":0.30802521109580994,"522":1.4910472631454468,"523":3.816014289855957,"524":1.221087098121643,"525":5.980497360229492,"526":7.650408744812012,"527":-5.634008407592773,"528":10.1316499710083,"529":0.6500884294509888,"530":-4.192055702209473,"531":-2.778625249862671,"532":-1.7639741897583008,"533":20.358190536499023,"534":-11.869123458862305,"535":12.317634582519531,"536":0.5818858742713928,"537":-7.308891296386719,"538":-7.72794246673584,"539":-19.228731155395508,"540":-0.542796790599823,"541":-5.891730785369873,"542":-6.505651473999023,"543":3.7135088443756104,"544":-3.048755645751953,"545":11.343515396118164,"546":-0.7689369916915894,"547":-4.624147415161133,"548":2.121143102645874,"549":8.735179901123047,"550":-6.902190208435059,"551":8.152520179748535,"552":-9.130346298217773,"553":-13.809972763061523,"554":-6.197456359863281,"555":1.27003812789917,"556":-1.27256178855896,"557":-10.675448417663574,"558":4.88832426071167,"559":15.3607816696167,"560":-1.3568023443222046,"561":-7.362218856811523,"562":-13.475586891174316,"563":-0.46859845519065857,"564":-3.3188931941986084,"565":-5.132988929748535,"566":6.155667304992676,"567":-0.37810009717941284,"568":-9.03343391418457,"569":8.848505973815918,"570":15.319392204284668,"571":6.816594123840332,"572":1.1289169788360596,"573":6.626832485198975,"574":1.492695927619934,"575":-5.844357967376709,"576":6.8310160636901855,"577":7.145168781280518,"578":-4.949995994567871,"579":2.230048179626465,"580":-7.004622936248779,"581":4.660622596740723,"582":10.896219253540039,"583":6.254926681518555,"584":0.16453081369400024,"585":1.584882378578186,"586":8.129877090454102,"587":-5.210818767547607,"588":1.220502257347107,"589":-0.20535248517990112,"590":1.8287690877914429,"591":-2.56343150138855,"592":9.412946701049805,"593":2.828317403793335,"594":-6.1133904457092285,"595":2.049999475479126,"596":-0.11873439699411392,"597":3.0425291061401367,"598":-0.48572516441345215,"599":7.817244052886963,"600":-4.743257999420166,"601":-1.582632064819336,"602":-1.3899184465408325,"603":4.488151550292969,"604":2.4984970092773438,"605":0.8651704788208008,"606":4.411092758178711,"607":6.356010913848877,"608":-11.24813175201416,"609":-8.428033828735352,"610":0.008479145355522633,"611":6.996603488922119,"612":5.1351494789123535,"613":-0.31483158469200134,"614":-1.7659169435501099,"615":-1.6797659397125244,"616":1.0392383337020874,"617":5.469551086425781,"618":5.839779853820801,"619":-4.787060737609863,"620":11.231103897094727,"621":5.4387078285217285,"622":3.7970845699310303,"623":-0.8917117714881897,"624":-4.110982418060303,"625":6.435719013214111,"626":-3.3490264415740967,"627":-8.96391773223877,"628":7.4974870681762695,"629":2.2768752574920654,"630":6.40834903717041,"631":-9.030571937561035,"632":6.6391777992248535,"633":-7.800985813140869,"634":-4.860410690307617,"635":7.52423095703125,"636":0.9762841463088989,"637":-2.2766780853271484,"638":-2.4118926525115967,"639":-4.676234722137451,"640":-10.988970756530762,"641":8.906022071838379,"642":6.502507209777832,"643":5.195922374725342,"644":-1.899078607559204,"645":-8.908770561218262,"646":-8.08871078491211,"647":8.664605140686035,"648":-4.9541521072387695,"649":8.900066375732422,"650":-15.244701385498047,"651":-9.323452949523926,"652":9.343647003173828,"653":8.266705513000488,"654":-7.354971885681152,"655":-3.4084911346435547,"656":-5.93850564956665,"657":-9.46384048461914,"658":0.28892791271209717,"659":7.552138328552246,"660":2.2973296642303467,"661":3.3581690788269043,"662":-19.574344635009766,"663":8.370478630065918,"664":14.536073684692383,"665":-10.56836986541748,"666":-10.788753509521484,"667":-7.475846290588379,"668":8.921889305114746,"669":3.2624995708465576,"670":-0.8484694361686707,"671":-0.7939754128456116,"672":-6.479043483734131,"673":-15.999964714050293,"674":-8.215300559997559,"675":13.262550354003906,"676":9.155726432800293,"677":8.871382713317871,"678":-6.357275485992432,"679":1.6701781749725342,"680":6.7428436279296875,"681":0.7377422451972961,"682":1.1443973779678345,"683":-1.0309938192367554,"684":-24.058029174804688,"685":-13.163239479064941,"686":4.447601318359375,"687":13.091489791870117,"688":4.851773738861084,"689":6.423113822937012,"690":2.0261380672454834,"691":-5.355159759521484,"692":9.896528244018555,"693":-5.899020195007324,"694":-6.344763278961182,"695":-7.823664665222168,"696":-1.6283111572265625,"697":-5.481908321380615,"698":-3.6676697731018066,"699":3.3723669052124023,"700":-1.603674054145813,"701":4.921103000640869,"702":11.763540267944336,"703":-2.762223482131958,"704":11.651485443115234,"705":-20.874561309814453,"706":9.432168006896973,"707":11.753149032592773,"708":-4.125027179718018,"709":5.594810962677002,"710":11.381192207336426,"711":-1.0385881662368774,"712":5.611913681030273,"713":-12.167152404785156,"714":27.549497604370117,"715":-6.198450565338135,"716":-3.608675241470337,"717":-15.934531211853027,"718":9.71080493927002,"719":13.129650115966797,"720":14.924708366394043,"721":7.715307235717773,"722":-8.317398071289062,"723":-9.096888542175293,"724":-2.032464027404785,"725":25.82756996154785,"726":-1.9069006443023682,"727":-1.112416386604309,"728":-2.8767452239990234,"729":1.8407433032989502,"730":-0.2602422535419464,"731":-3.025007724761963,"732":2.4409399032592773,"733":-1.6391267776489258,"734":-3.756354570388794,"735":-0.5227490663528442,"736":-0.16995656490325928,"737":3.5829145908355713,"738":0.6963890790939331,"739":-1.0436724424362183,"740":2.532456398010254,"741":4.0903639793396,"742":-0.07907205075025558,"743":2.785367250442505,"744":-1.3532973527908325,"745":-0.6295624375343323,"746":0.9512556195259094,"747":2.067931652069092,"748":2.478647232055664,"749":1.2252401113510132,"750":-5.477237701416016,"751":-1.4212101697921753,"752":-2.7521884441375732,"753":0.735050618648529,"754":1.5940712690353394,"755":1.8923664093017578,"756":-1.794751524925232,"757":0.29754891991615295,"758":-0.9006449580192566,"759":-3.585653781890869,"760":1.6527308225631714,"761":-1.328155755996704,"762":0.5698689222335815,"763":-0.21728362143039703,"764":2.262202262878418,"765":-0.20603203773498535,"766":0.09521103650331497,"767":-0.2146182358264923,"768":-0.33799099922180176,"769":3.0998504161834717,"770":1.116816759109497,"771":-2.738896369934082,"772":-3.475748062133789,"773":-1.8805285692214966,"774":-2.795644521713257,"775":2.8855628967285156,"776":2.0997977256774902,"777":-3.542534828186035,"778":-1.568098545074463,"779":1.6552246809005737,"780":-0.6600403189659119,"781":1.5040258169174194,"782":0.17826327681541443,"783":2.196345567703247,"784":2.375276803970337,"785":-5.720568656921387,"786":-0.8676870465278625,"787":2.0829899311065674,"788":-0.8034799695014954,"789":1.3993655443191528,"790":-2.2651631832122803,"791":-3.6305112838745117,"792":1.4945588111877441,"793":-9.052600860595703,"794":2.3205432891845703,"795":5.003795146942139,"796":0.9967716932296753,"797":-1.7484477758407593,"798":-1.2597038745880127,"799":1.4601658582687378,"800":6.943589210510254,"801":-0.8452898263931274,"802":3.712714195251465,"803":-3.7506868839263916,"804":3.2587568759918213,"805":4.031178951263428,"806":0.49469611048698425,"807":5.49281120300293,"808":-1.967755675315857,"809":-0.17270709574222565,"810":0.2859218418598175,"811":-7.72666072845459}},"hiddenLayers":[{"inputMatrix":{"rows":20,"columns":28,"weights":{"0":1.1345552206039429,"1":0.937075138092041,"2":2.2589125633239746,"3":0.6373449563980103,"4":-0.2344069927930832,"5":-1.5265520811080933,"6":1.5651193857192993,"7":-0.3641861081123352,"8":-2.427403211593628,"9":-0.05615999177098274,"10":1.6942248344421387,"11":-0.9311691522598267,"12":0.010300347581505775,"13":-0.7959123253822327,"14":-0.06196291744709015,"15":1.361064076423645,"16":0.7837386727333069,"17":1.0584067106246948,"18":0.9100420475006104,"19":0.2502601146697998,"20":-0.4270567297935486,"21":-0.05193379893898964,"22":-0.18629233539104462,"23":1.268696904182434,"24":1.2517015933990479,"25":-0.8014338612556458,"26":-1.023061752319336,"27":-0.8592149615287781,"28":-1.1618545055389404,"29":1.2302945852279663,"30":-0.8964831829071045,"31":-1.4785245656967163,"32":1.3691799640655518,"33":1.036275863647461,"34":-2.6473605632781982,"35":-0.40873661637306213,"36":2.503734827041626,"37":-1.3453247547149658,"38":-0.2389405220746994,"39":0.7197871804237366,"40":-1.0595002174377441,"41":0.05885397642850876,"42":-0.5561871528625488,"43":-0.8977476358413696,"44":-0.5827181339263916,"45":0.5789599418640137,"46":2.6076982021331787,"47":-1.5824811458587646,"48":-1.6968379020690918,"49":-1.5561662912368774,"50":-1.0986971855163574,"51":2.80899977684021,"52":-1.0988763570785522,"53":-0.8667541146278381,"54":0.924991250038147,"55":0.059169162064790726,"56":-0.4907902479171753,"57":1.1149448156356812,"58":-1.3910942077636719,"59":2.1172142028808594,"60":-0.4152749478816986,"61":-1.6567661762237549,"62":-3.2994771003723145,"63":-0.8545854091644287,"64":2.323904037475586,"65":-0.7058500647544861,"66":-1.1494463682174683,"67":-2.063389301300049,"68":-3.1610653400421143,"69":0.78615802526474,"70":-0.979857861995697,"71":0.2112005054950714,"72":1.1811045408248901,"73":0.2673196494579315,"74":-0.8883311152458191,"75":-4.4919962882995605,"76":-1.2228888273239136,"77":-0.7903189063072205,"78":-2.635836124420166,"79":-1.3428691625595093,"80":3.530576705932617,"81":-1.1064937114715576,"82":0.5121886134147644,"83":-1.463771939277649,"84":2.178014039993286,"85":0.8576192855834961,"86":1.2830244302749634,"87":0.3222987949848175,"88":1.42472505569458,"89":-1.7179371118545532,"90":-1.4148979187011719,"91":-0.4858585596084595,"92":-0.16935329139232635,"93":1.3573836088180542,"94":-3.517519950866699,"95":0.161618173122406,"96":1.0079745054244995,"97":0.2581716775894165,"98":1.7015694379806519,"99":1.509521245956421,"100":-2.100834369659424,"101":-1.8198543787002563,"102":-0.21259744465351105,"103":2.618471384048462,"104":-0.48794135451316833,"105":0.755851149559021,"106":-2.525056838989258,"107":-0.3636445999145508,"108":2.160810708999634,"109":1.1912561655044556,"110":-1.4710404872894287,"111":2.224055290222168,"112":0.6883900761604309,"113":-2.7743985652923584,"114":-0.44166335463523865,"115":-0.6020457744598389,"116":-1.454432725906372,"117":2.018338441848755,"118":1.2276971340179443,"119":0.5436660051345825,"120":0.4649583101272583,"121":1.9580177068710327,"122":1.9748234748840332,"123":1.833898901939392,"124":1.0526472330093384,"125":-1.662170648574829,"126":0.05797969177365303,"127":2.929324150085449,"128":0.8926332592964172,"129":1.6121556758880615,"130":3.3661234378814697,"131":-0.027624238282442093,"132":0.05726158618927002,"133":2.8184351921081543,"134":2.072232484817505,"135":0.7985823154449463,"136":1.9862169027328491,"137":-3.1465961933135986,"138":2.663569927215576,"139":-0.22901928424835205,"140":-0.5092118382453918,"141":-0.6625674962997437,"142":-0.7197863459587097,"143":-0.3482695519924164,"144":-1.88865065574646,"145":-1.8607239723205566,"146":-0.5338646173477173,"147":0.7483057975769043,"148":-2.824389696121216,"149":1.5500298738479614,"150":3.792964220046997,"151":-0.30434346199035645,"152":1.5675394535064697,"153":-0.2466777116060257,"154":0.5060828924179077,"155":-2.634474754333496,"156":1.099569320678711,"157":0.5962615013122559,"158":2.5800392627716064,"159":-1.5167423486709595,"160":1.403805136680603,"161":1.887283444404602,"162":-1.7279046773910522,"163":-1.1825976371765137,"164":-3.427236795425415,"165":-1.5248969793319702,"166":0.14390714466571808,"167":-0.25485748052597046,"168":2.5637834072113037,"169":1.1531645059585571,"170":2.4768664836883545,"171":0.9349035024642944,"172":0.4971774220466614,"173":-0.4172811210155487,"174":0.997462809085846,"175":0.26234251260757446,"176":0.900946319103241,"177":-0.4749312102794647,"178":-0.8623412251472473,"179":-1.991136074066162,"180":0.27445223927497864,"181":-2.2302353382110596,"182":1.8125282526016235,"183":-2.455507278442383,"184":1.7047381401062012,"185":-1.6687266826629639,"186":1.0052767992019653,"187":-1.0411590337753296,"188":-0.7508218884468079,"189":0.35660961270332336,"190":0.9231302738189697,"191":-1.7985118627548218,"192":-1.565028429031372,"193":-0.1132981926202774,"194":-0.044751983135938644,"195":-1.296951174736023,"196":0.4932355582714081,"197":-0.9920600652694702,"198":0.9866620302200317,"199":0.9115610718727112,"200":1.1109755039215088,"201":0.4929685890674591,"202":1.3198777437210083,"203":0.03460366278886795,"204":-0.7025727033615112,"205":2.0402536392211914,"206":4.273831367492676,"207":-0.18855158984661102,"208":1.5892658233642578,"209":-0.1660342663526535,"210":2.115817070007324,"211":-1.7021093368530273,"212":-0.214265838265419,"213":-0.7183376550674438,"214":1.3186181783676147,"215":-0.04611197113990784,"216":-0.18280312418937683,"217":-0.4478163421154022,"218":2.865570306777954,"219":-2.651895523071289,"220":-1.2792823314666748,"221":1.0933693647384644,"222":1.6284006834030151,"223":0.6411593556404114,"224":1.2732698917388916,"225":0.7903529405593872,"226":-0.9858810901641846,"227":-0.023419246077537537,"228":-1.9324764013290405,"229":-0.23361670970916748,"230":1.7595031261444092,"231":1.4024548530578613,"232":-2.44673752784729,"233":-1.5261410474777222,"234":-2.9441123008728027,"235":3.0500056743621826,"236":-2.71978497505188,"237":0.18254689872264862,"238":0.3186749219894409,"239":-2.351416826248169,"240":1.7080260515213013,"241":1.2429455518722534,"242":-0.5795857310295105,"243":1.4450780153274536,"244":-2.3199822902679443,"245":-0.1095486655831337,"246":1.2244210243225098,"247":1.275099754333496,"248":2.5070111751556396,"249":-3.3253278732299805,"250":1.097562551498413,"251":-0.7355864644050598,"252":0.7781529426574707,"253":1.4470067024230957,"254":-2.15644907951355,"255":0.008134699426591396,"256":0.04925640672445297,"257":1.4007660150527954,"258":1.5005749464035034,"259":-0.853073000907898,"260":-0.09374433755874634,"261":0.650080680847168,"262":-0.7518569827079773,"263":-0.0976405069231987,"264":0.6024744510650635,"265":0.8231691122055054,"266":-0.5122242569923401,"267":-1.2250185012817383,"268":1.0524064302444458,"269":-0.32849305868148804,"270":2.4162681102752686,"271":-0.6790351271629333,"272":2.174938440322876,"273":4.146261692047119,"274":1.8562712669372559,"275":-2.642256736755371,"276":-1.2043181657791138,"277":2.638317346572876,"278":2.5788090229034424,"279":-2.520942449569702,"280":-2.1860690116882324,"281":0.6813696622848511,"282":-1.8481775522232056,"283":-0.07301819324493408,"284":2.091423749923706,"285":0.11765812337398529,"286":-2.115644693374634,"287":1.1499072313308716,"288":1.2384287118911743,"289":-0.3704865574836731,"290":-0.09970526397228241,"291":-1.266526460647583,"292":-2.021538019180298,"293":0.6123225688934326,"294":3.237074851989746,"295":1.926755666732788,"296":2.107112169265747,"297":1.068438172340393,"298":0.7787466049194336,"299":-1.0282456874847412,"300":2.206193685531616,"301":-2.1848061084747314,"302":-0.29049739241600037,"303":0.4940342307090759,"304":0.05526433512568474,"305":-1.574651837348938,"306":-0.05493265390396118,"307":0.39886561036109924,"308":-0.7862203121185303,"309":0.5612070560455322,"310":-0.6930954456329346,"311":-5.364820957183838,"312":-0.6678438186645508,"313":3.7666444778442383,"314":-1.9249094724655151,"315":-1.3322621583938599,"316":0.04718184098601341,"317":0.20407067239284515,"318":-0.3757041096687317,"319":1.8539127111434937,"320":-0.9453901648521423,"321":-1.4226882457733154,"322":-0.8761529922485352,"323":-2.128812551498413,"324":-1.5927817821502686,"325":-0.5209161639213562,"326":2.32073712348938,"327":3.611694574356079,"328":2.2202770709991455,"329":-0.7939956784248352,"330":0.1651698648929596,"331":-1.4610741138458252,"332":-1.1449249982833862,"333":-0.27460891008377075,"334":0.9237857460975647,"335":-0.8409892916679382,"336":0.9023724794387817,"337":0.4792320430278778,"338":2.0690529346466064,"339":2.9925737380981445,"340":-1.2884442806243896,"341":-1.3017048835754395,"342":0.6678583025932312,"343":-1.811071515083313,"344":0.1805410236120224,"345":2.16221022605896,"346":-2.357698678970337,"347":0.4365319013595581,"348":0.12135327607393265,"349":-0.49804723262786865,"350":-1.0683071613311768,"351":0.5997267961502075,"352":-0.5253321528434753,"353":-1.7323194742202759,"354":-1.121311902999878,"355":-1.9176043272018433,"356":-1.1998767852783203,"357":0.6829317212104797,"358":0.386197566986084,"359":-1.0418020486831665,"360":1.9301780462265015,"361":-0.1464957445859909,"362":-0.4995826482772827,"363":-0.672660768032074,"364":-0.7359654307365417,"365":1.6410415172576904,"366":0.6920669674873352,"367":-0.1008835956454277,"368":0.3715093731880188,"369":-1.4533735513687134,"370":-0.2286253273487091,"371":-0.9265372157096863,"372":-1.3724398612976074,"373":0.16477259993553162,"374":2.080601692199707,"375":-3.3046534061431885,"376":3.1453230381011963,"377":2.42679500579834,"378":0.5699644088745117,"379":-2.577484369277954,"380":-1.388828992843628,"381":-0.5192726850509644,"382":3.0403943061828613,"383":2.3360085487365723,"384":-0.5795485377311707,"385":-0.5522821545600891,"386":0.34865042567253113,"387":-0.9743601679801941,"388":-0.5350648164749146,"389":-1.0826504230499268,"390":-0.2922775149345398,"391":2.838207483291626,"392":-1.377535343170166,"393":1.8403664827346802,"394":-1.4644478559494019,"395":-0.3715750277042389,"396":-0.6097768545150757,"397":0.8878743648529053,"398":0.5726251006126404,"399":-0.7323958277702332,"400":2.599684238433838,"401":-0.024345409125089645,"402":-1.1974537372589111,"403":-0.6055492758750916,"404":-2.758995771408081,"405":0.5915364027023315,"406":1.7060071229934692,"407":2.1231353282928467,"408":1.1673781871795654,"409":1.1735740900039673,"410":1.2296395301818848,"411":-2.4620606899261475,"412":1.2056835889816284,"413":-0.2642870545387268,"414":-2.7413904666900635,"415":-0.7648134231567383,"416":-0.49697068333625793,"417":0.3315759301185608,"418":1.2961748838424683,"419":-2.0546159744262695,"420":1.1326695680618286,"421":1.3171602487564087,"422":1.0544686317443848,"423":-1.8831779956817627,"424":-1.453130841255188,"425":-0.04721652716398239,"426":2.1011252403259277,"427":2.5361971855163574,"428":0.15408244729042053,"429":-0.8310517072677612,"430":-1.59904146194458,"431":-0.619350790977478,"432":-2.1033358573913574,"433":1.5995434522628784,"434":0.0728909969329834,"435":-0.7720164060592651,"436":-1.350469708442688,"437":1.1359597444534302,"438":0.15196819603443146,"439":0.8989565968513489,"440":-1.7697275876998901,"441":-1.716913104057312,"442":-0.39730599522590637,"443":1.699846863746643,"444":3.454827070236206,"445":-0.29173171520233154,"446":-1.3537838459014893,"447":-0.19036956131458282,"448":-2.0146450996398926,"449":-0.030347948893904686,"450":1.5745166540145874,"451":-1.0423280000686646,"452":1.0618302822113037,"453":-0.8259240388870239,"454":3.5749351978302,"455":1.1398608684539795,"456":0.7515701055526733,"457":1.2260888814926147,"458":1.2113165855407715,"459":1.6449580192565918,"460":-1.327256679534912,"461":1.394699215888977,"462":1.6014379262924194,"463":-1.8279919624328613,"464":-0.5045028924942017,"465":-0.49172914028167725,"466":2.3377444744110107,"467":-1.2476238012313843,"468":-1.1113239526748657,"469":-0.3477514684200287,"470":-0.917523980140686,"471":0.6718882322311401,"472":-0.5006508827209473,"473":2.61837100982666,"474":1.6867008209228516,"475":0.7734614014625549,"476":1.3082817792892456,"477":0.6722016334533691,"478":1.7971962690353394,"479":-0.6897572875022888,"480":0.059650350362062454,"481":2.5454611778259277,"482":-0.7087933421134949,"483":1.7687642574310303,"484":1.4439408779144287,"485":-1.6918528079986572,"486":-1.537985920906067,"487":-0.6834321618080139,"488":-0.2252000868320465,"489":0.7927869558334351,"490":0.599563717842102,"491":1.4748018980026245,"492":1.0854789018630981,"493":2.749861001968384,"494":1.7957861423492432,"495":2.277585983276367,"496":0.3177575170993805,"497":0.06176671013236046,"498":1.6030462980270386,"499":0.8784146308898926,"500":0.8601072430610657,"501":-2.1073737144470215,"502":-0.9535269737243652,"503":-1.032078742980957,"504":-1.4765313863754272,"505":0.968835711479187,"506":1.0362554788589478,"507":-5.932980537414551,"508":0.9240103363990784,"509":1.931929349899292,"510":1.3308721780776978,"511":0.21774110198020935,"512":-0.33004555106163025,"513":1.5124905109405518,"514":1.9316368103027344,"515":1.8148690462112427,"516":0.6749227643013,"517":2.3126511573791504,"518":-1.1170775890350342,"519":-2.3529551029205322,"520":-2.7477400302886963,"521":-1.6719801425933838,"522":0.20927049219608307,"523":0.8749025464057922,"524":-0.7702441215515137,"525":-0.17727242410182953,"526":-0.9501194953918457,"527":1.6214003562927246,"528":0.08785349130630493,"529":3.2798190116882324,"530":1.2814759016036987,"531":2.0594379901885986,"532":-1.0061007738113403,"533":-1.376903772354126,"534":-0.9777218699455261,"535":-1.670765995979309,"536":-0.4354913532733917,"537":0.8312100768089294,"538":-1.4473170042037964,"539":0.7272769212722778,"540":1.541780710220337,"541":2.108675241470337,"542":-0.31000566482543945,"543":0.34885653853416443,"544":0.2495100051164627,"545":0.09430322796106339,"546":5.023212432861328,"547":0.07685830444097519,"548":-0.2112206667661667,"549":0.454145222902298,"550":-0.6777239441871643,"551":-0.5901967883110046,"552":0.5355488061904907,"553":1.8205101490020752,"554":-2.459777593612671,"555":-0.9772722125053406,"556":-1.4769104719161987,"557":2.5765440464019775,"558":0.3709678053855896,"559":1.5140444040298462}},"inputHidden":{"rows":20,"columns":20,"weights":{"0":-3.489264726638794,"1":0.5242860913276672,"2":-0.30225905776023865,"3":0.5330787897109985,"4":3.001305103302002,"5":-0.5322593450546265,"6":-3.4187910556793213,"7":-0.2790304720401764,"8":-0.04425780102610588,"9":0.5499577522277832,"10":-4.1002373695373535,"11":-2.1600372791290283,"12":2.0053820610046387,"13":-0.09554104506969452,"14":-0.2906867265701294,"15":-1.0824764966964722,"16":0.3132188022136688,"17":-1.9550994634628296,"18":2.39475154876709,"19":1.3047747611999512,"20":0.8794227242469788,"21":0.22788920998573303,"22":-0.839599072933197,"23":-0.8066413402557373,"24":1.900102972984314,"25":-0.5062024593353271,"26":0.42661890387535095,"27":0.07844726741313934,"28":0.07684404402971268,"29":0.22236931324005127,"30":0.7745142579078674,"31":-0.02945682592689991,"32":0.39929676055908203,"33":-2.39754056930542,"34":0.19688880443572998,"35":-2.093651533126831,"36":0.3492128849029541,"37":0.117336705327034,"38":-0.5604991316795349,"39":0.6738712191581726,"40":-0.9503714442253113,"41":-1.6830899715423584,"42":0.047742776572704315,"43":1.0458370447158813,"44":-1.1684837341308594,"45":-1.2717461585998535,"46":3.944830894470215,"47":-0.5810307860374451,"48":-0.6717211604118347,"49":-2.0309598445892334,"50":0.8698596358299255,"51":1.1135591268539429,"52":-1.375881314277649,"53":0.28901296854019165,"54":0.35585981607437134,"55":1.5405093431472778,"56":-2.1537857055664062,"57":-1.921048879623413,"58":2.9045231342315674,"59":-1.784279704093933,"60":1.0996323823928833,"61":-3.123894691467285,"62":0.7539973855018616,"63":-0.4775198996067047,"64":-0.6290920376777649,"65":-0.8037076592445374,"66":3.386847496032715,"67":0.24539420008659363,"68":1.053230881690979,"69":0.22276031970977783,"70":-1.014548659324646,"71":3.207753896713257,"72":-0.7748804688453674,"73":-2.810438871383667,"74":0.030203133821487427,"75":-0.36952605843544006,"76":2.9589500427246094,"77":0.6417600512504578,"78":0.24414649605751038,"79":-2.3607962131500244,"80":-1.226520299911499,"81":0.027876118198037148,"82":-0.5714504718780518,"83":0.7879164218902588,"84":1.6796506643295288,"85":-0.665047287940979,"86":0.11475882679224014,"87":1.1933289766311646,"88":1.404002070426941,"89":0.3869771659374237,"90":-1.4791842699050903,"91":0.6590660810470581,"92":0.1925424337387085,"93":0.2886653542518616,"94":2.4262657165527344,"95":-1.8929580450057983,"96":1.518770456314087,"97":1.1376516819000244,"98":-1.0160435438156128,"99":-0.11279014497995377,"100":-1.808610200881958,"101":-5.102588176727295,"102":-5.161787033081055,"103":0.16184084117412567,"104":-0.05397127941250801,"105":-1.5636926889419556,"106":-1.4834610223770142,"107":2.6167495250701904,"108":2.7728514671325684,"109":1.0498805046081543,"110":0.5317668318748474,"111":1.2960097789764404,"112":1.5660127401351929,"113":-2.7402782440185547,"114":-0.7481905817985535,"115":-0.34473034739494324,"116":-0.5182204246520996,"117":2.223663091659546,"118":-0.9732199311256409,"119":0.37132182717323303,"120":-0.3823791444301605,"121":0.5983004570007324,"122":-0.6189207434654236,"123":-1.2944368124008179,"124":-1.7048770189285278,"125":1.5428560972213745,"126":-1.7767025232315063,"127":1.4883671998977661,"128":2.0706934928894043,"129":1.384883999824524,"130":-1.9235032796859741,"131":-0.9686457514762878,"132":0.8527381420135498,"133":1.42472243309021,"134":0.669808566570282,"135":-1.8331817388534546,"136":-0.13795188069343567,"137":-1.632956624031067,"138":1.7061097621917725,"139":1.2879390716552734,"140":0.011455986648797989,"141":-1.008156657218933,"142":0.6671241521835327,"143":-0.5758968591690063,"144":0.7584517002105713,"145":-1.3058526515960693,"146":1.157641887664795,"147":-0.12436894327402115,"148":-0.16511301696300507,"149":-1.0948333740234375,"150":-0.5186028480529785,"151":-0.3280346095561981,"152":-0.2443714588880539,"153":-0.5111909508705139,"154":0.4847804009914398,"155":-0.04701457917690277,"156":0.941444993019104,"157":1.5629606246948242,"158":0.9714323878288269,"159":2.234750747680664,"160":3.7445294857025146,"161":-2.0337538719177246,"162":0.010647236369550228,"163":0.9178926944732666,"164":-0.7202878594398499,"165":1.637770175933838,"166":0.18375349044799805,"167":2.500131845474243,"168":-1.1452233791351318,"169":-0.9025444388389587,"170":-1.0421583652496338,"171":-0.2731878459453583,"172":0.8581117987632751,"173":3.3310019969940186,"174":-0.4195731282234192,"175":2.000424861907959,"176":0.42698290944099426,"177":-1.9181443452835083,"178":3.619797706604004,"179":1.4019880294799805,"180":0.5436945557594299,"181":1.1540225744247437,"182":0.07770975679159164,"183":1.1455342769622803,"184":0.6465381979942322,"185":1.4579497575759888,"186":-2.025958776473999,"187":-1.652099370956421,"188":-0.5439626574516296,"189":1.0077029466629028,"190":0.042649682611227036,"191":0.2895767390727997,"192":-0.4347098171710968,"193":0.7743279933929443,"194":1.8646903038024902,"195":-1.3535243272781372,"196":-0.7077980637550354,"197":-0.5582348108291626,"198":0.9023589491844177,"199":2.5995659828186035,"200":-0.15951795876026154,"201":-0.8440377116203308,"202":3.148554801940918,"203":0.29973387718200684,"204":-0.360708624124527,"205":1.779361367225647,"206":-0.6308862566947937,"207":-1.6124681234359741,"208":-0.11544238775968552,"209":2.04392671585083,"210":-1.3878408670425415,"211":0.08231194317340851,"212":4.009057998657227,"213":0.8520393371582031,"214":-1.0142656564712524,"215":0.12488436698913574,"216":1.2865289449691772,"217":0.17750950157642365,"218":1.4599874019622803,"219":0.19337724149227142,"220":-1.5217154026031494,"221":-0.7074637413024902,"222":0.7874266505241394,"223":-0.3682720363140106,"224":-1.947318196296692,"225":-0.6498317718505859,"226":1.9078856706619263,"227":0.13781608641147614,"228":0.20087212324142456,"229":0.9165876507759094,"230":4.262859344482422,"231":1.9497883319854736,"232":-1.3911705017089844,"233":0.658013105392456,"234":0.3803134858608246,"235":-0.22657740116119385,"236":1.3982993364334106,"237":0.8770749568939209,"238":-0.20190183818340302,"239":-2.149348735809326,"240":0.3673563301563263,"241":0.09998828172683716,"242":-0.6155821681022644,"243":-3.106659412384033,"244":-1.0045912265777588,"245":-1.2459138631820679,"246":0.18673112988471985,"247":0.38382047414779663,"248":-0.3389439582824707,"249":-1.6502635478973389,"250":-3.1772243976593018,"251":-2.5650570392608643,"252":-0.05948876962065697,"253":1.3162518739700317,"254":-2.3776769638061523,"255":0.4837425649166107,"256":0.36986297369003296,"257":-1.1722519397735596,"258":1.5170646905899048,"259":1.2285704612731934,"260":-2.640241861343384,"261":0.608989417552948,"262":-1.9667023420333862,"263":-2.3205673694610596,"264":-1.5103983879089355,"265":-2.809802770614624,"266":-2.6186633110046387,"267":-0.1570776104927063,"268":3.1566784381866455,"269":-1.0436325073242188,"270":-0.8074727058410645,"271":-1.7024824619293213,"272":-0.7393194437026978,"273":1.8096719980239868,"274":3.7925875186920166,"275":2.982163429260254,"276":-1.7715765237808228,"277":0.21858374774456024,"278":2.4726510047912598,"279":2.5693888664245605,"280":1.4896661043167114,"281":-1.1946825981140137,"282":0.26600611209869385,"283":-2.810223340988159,"284":-0.8996356725692749,"285":-4.216304302215576,"286":-1.280694842338562,"287":1.0068895816802979,"288":-1.7196651697158813,"289":0.15493349730968475,"290":-0.47802749276161194,"291":-0.46305862069129944,"292":-0.6278589963912964,"293":-0.052779797464609146,"294":1.3769773244857788,"295":1.906965970993042,"296":-1.8205865621566772,"297":-0.572807788848877,"298":-0.3651009500026703,"299":0.8817970156669617,"300":-0.1396675705909729,"301":2.214586019515991,"302":-0.1547875702381134,"303":-0.9624667763710022,"304":2.082488536834717,"305":0.9639875888824463,"306":-3.037118911743164,"307":1.6467539072036743,"308":0.7617039680480957,"309":0.2097315490245819,"310":0.9979432225227356,"311":-1.0293225049972534,"312":-1.5946376323699951,"313":1.856245756149292,"314":-0.9106438755989075,"315":-1.1350167989730835,"316":-0.08988247066736221,"317":-0.5137941837310791,"318":2.7847814559936523,"319":0.35448578000068665,"320":-0.23725062608718872,"321":-1.0692564249038696,"322":-0.8558697700500488,"323":0.05953611806035042,"324":-1.4541364908218384,"325":-0.3784269094467163,"326":-1.9530330896377563,"327":1.4591271877288818,"328":-1.6160998344421387,"329":-2.420144557952881,"330":-2.5071263313293457,"331":-4.703497409820557,"332":-0.5702300071716309,"333":1.178397297859192,"334":-1.0121819972991943,"335":1.7945504188537598,"336":2.2520923614501953,"337":0.17080596089363098,"338":2.1757922172546387,"339":0.5536198616027832,"340":-0.3899914622306824,"341":3.1331400871276855,"342":-0.8526821732521057,"343":-0.048431746661663055,"344":-0.17599985003471375,"345":-0.2566976547241211,"346":0.8754185438156128,"347":0.9216972589492798,"348":2.354938507080078,"349":2.9273452758789062,"350":1.0569534301757812,"351":-0.644180953502655,"352":-1.4891026020050049,"353":-0.8893179893493652,"354":0.41745322942733765,"355":-4.211637496948242,"356":0.6414022445678711,"357":0.0020950036123394966,"358":0.4830584228038788,"359":0.6685477495193481,"360":-3.663437843322754,"361":-0.5791507363319397,"362":-4.4953932762146,"363":-4.200333118438721,"364":-3.105046510696411,"365":3.5461907386779785,"366":-6.779997825622559,"367":0.8599421977996826,"368":0.07642428576946259,"369":-0.552046537399292,"370":-1.2232153415679932,"371":1.3488999605178833,"372":3.1132941246032715,"373":0.6414167284965515,"374":6.378213405609131,"375":7.842111587524414,"376":6.613418102264404,"377":3.8561441898345947,"378":0.5630947947502136,"379":0.28790751099586487,"380":-5.659149169921875,"381":-5.3164753913879395,"382":2.3683924674987793,"383":0.36638349294662476,"384":-0.30616089701652527,"385":1.2097198963165283,"386":-1.7025506496429443,"387":0.7943689227104187,"388":3.5334885120391846,"389":-0.5212683081626892,"390":0.16086088120937347,"391":2.742387056350708,"392":0.5655477643013,"393":0.5196945071220398,"394":0.7490085363388062,"395":-1.0039926767349243,"396":0.37062036991119385,"397":1.9158202409744263,"398":5.987948417663574,"399":-3.2574920654296875}},"inputBias":{"rows":20,"columns":1,"weights":{"0":0.047873497009277344,"1":-0.4390898048877716,"2":-0.206651508808136,"3":0.23580312728881836,"4":-0.06285250186920166,"5":0.3510993719100952,"6":0.12491346895694733,"7":-0.47182008624076843,"8":-0.15118543803691864,"9":-0.07241477072238922,"10":-0.41782864928245544,"11":-0.06735710054636002,"12":-0.2826654613018036,"13":0.17164181172847748,"14":-0.5122107267379761,"15":0.72757488489151,"16":-0.5887329578399658,"17":-0.04051018878817558,"18":-0.8638085722923279,"19":-0.3975289762020111}},"forgetMatrix":{"rows":20,"columns":28,"weights":{"0":0.2941873073577881,"1":0.08136314153671265,"2":-0.171870619058609,"3":1.0611761808395386,"4":0.28283610939979553,"5":-1.1227959394454956,"6":-0.8089550733566284,"7":-1.406014323234558,"8":-0.14647534489631653,"9":1.9421833753585815,"10":1.3525983095169067,"11":0.18537384271621704,"12":2.329692840576172,"13":1.3911893367767334,"14":0.20083798468112946,"15":0.05192146822810173,"16":1.5080269575119019,"17":-1.6662558317184448,"18":1.4291244745254517,"19":-1.8010565042495728,"20":-0.054152712225914,"21":2.876680374145508,"22":1.2841013669967651,"23":-1.3490697145462036,"24":-1.206117033958435,"25":0.30680906772613525,"26":-0.4338320195674896,"27":1.0453053712844849,"28":-0.9635134339332581,"29":-0.0062498608604073524,"30":-0.18677382171154022,"31":-1.39205002784729,"32":0.22935225069522858,"33":0.7529938817024231,"34":-0.7220730781555176,"35":-0.24505265057086945,"36":1.1471521854400635,"37":-0.20930342376232147,"38":1.0660629272460938,"39":1.7007453441619873,"40":0.15380902588367462,"41":2.6283459663391113,"42":0.518455982208252,"43":-0.3268754780292511,"44":-0.5548537969589233,"45":0.5410977005958557,"46":1.517323613166809,"47":-0.13592153787612915,"48":0.8738783001899719,"49":0.3552383482456207,"50":-0.7241221070289612,"51":2.054304599761963,"52":-0.225586399435997,"53":-0.40263792872428894,"54":1.014716386795044,"55":-0.176815003156662,"56":-2.1043481826782227,"57":0.42254623770713806,"58":1.0278294086456299,"59":-0.4844357967376709,"60":0.9971446394920349,"61":-0.27284446358680725,"62":-1.9776244163513184,"63":0.6826026439666748,"64":1.5170652866363525,"65":0.9888793230056763,"66":-1.1678274869918823,"67":-0.0756777673959732,"68":-2.562098741531372,"69":0.6674314141273499,"70":2.3933584690093994,"71":-0.4747963845729828,"72":-0.026283815503120422,"73":0.7897321581840515,"74":2.440140962600708,"75":-2.9268832206726074,"76":0.7939132452011108,"77":-0.1704178750514984,"78":-2.510215997695923,"79":-1.0047868490219116,"80":0.27952855825424194,"81":0.8586902618408203,"82":1.805184006690979,"83":0.7807533144950867,"84":-2.971008062362671,"85":-1.1723438501358032,"86":-0.012744825333356857,"87":0.2056141197681427,"88":-2.421616315841675,"89":-0.020622842013835907,"90":0.3737621307373047,"91":-0.24410630762577057,"92":-1.1384282112121582,"93":-1.3750250339508057,"94":1.4597184658050537,"95":-0.4105699956417084,"96":1.893221378326416,"97":1.0645525455474854,"98":0.008517354726791382,"99":1.3095245361328125,"100":0.689217746257782,"101":0.6495561599731445,"102":1.0845274925231934,"103":0.06479740887880325,"104":0.29353809356689453,"105":2.295778512954712,"106":-0.7266558408737183,"107":1.0917296409606934,"108":-3.070164918899536,"109":-0.8533143401145935,"110":0.5069762468338013,"111":-1.0871062278747559,"112":0.1238817498087883,"113":-0.38522300124168396,"114":-0.1321646273136139,"115":-0.40171578526496887,"116":-1.5892412662506104,"117":0.2249983698129654,"118":-0.9357933402061462,"119":-2.778942108154297,"120":-2.7100276947021484,"121":-0.9658900499343872,"122":0.8352002501487732,"123":1.108600378036499,"124":1.2260384559631348,"125":-0.8358007073402405,"126":-1.175410270690918,"127":-0.6131028532981873,"128":-0.062478844076395035,"129":-0.6947997212409973,"130":-0.39808258414268494,"131":0.8960748910903931,"132":0.4653542637825012,"133":0.41049814224243164,"134":2.4312636852264404,"135":1.1786830425262451,"136":-0.3694515824317932,"137":-1.138141393661499,"138":-0.9937071800231934,"139":0.8171127438545227,"140":-1.5258169174194336,"141":0.5507485270500183,"142":0.8812510371208191,"143":-0.20818722248077393,"144":2.9473562240600586,"145":-0.4693439304828644,"146":-1.3725804090499878,"147":2.8382182121276855,"148":1.8083536624908447,"149":-0.29536962509155273,"150":0.9995563626289368,"151":1.0785022974014282,"152":0.20934942364692688,"153":0.5049569010734558,"154":2.312983989715576,"155":1.2414876222610474,"156":-0.6284272074699402,"157":-1.473603367805481,"158":0.41331246495246887,"159":0.13029563426971436,"160":-0.6708931922912598,"161":-1.618144154548645,"162":-0.7376060485839844,"163":-0.48434537649154663,"164":0.7748848795890808,"165":1.6380858421325684,"166":0.714630126953125,"167":-0.27350345253944397,"168":0.8634156584739685,"169":0.7184622287750244,"170":-0.6702532768249512,"171":1.1959152221679688,"172":1.0982131958007812,"173":-0.9374958872795105,"174":1.8697630167007446,"175":0.2288944274187088,"176":1.2042162418365479,"177":-0.8680351972579956,"178":0.3667188286781311,"179":-0.0274590365588665,"180":-1.103113055229187,"181":0.866177499294281,"182":-0.3879368305206299,"183":-4.301333904266357,"184":-1.1937007904052734,"185":-0.21988213062286377,"186":-1.4306657314300537,"187":-0.9451391100883484,"188":1.0282506942749023,"189":-3.158036708831787,"190":-2.4849300384521484,"191":2.2177789211273193,"192":0.8645520806312561,"193":-0.7943219542503357,"194":1.0103464126586914,"195":1.0926586389541626,"196":1.0362054109573364,"197":0.28669601678848267,"198":0.105222187936306,"199":0.23702053725719452,"200":0.7430416941642761,"201":-0.18502284586429596,"202":0.49249109625816345,"203":1.2155687808990479,"204":0.5577146410942078,"205":-0.29963570833206177,"206":0.9324538111686707,"207":-1.9097779989242554,"208":0.2165968269109726,"209":2.075263261795044,"210":0.41324383020401,"211":-1.534379243850708,"212":-0.3460867702960968,"213":0.20035214722156525,"214":0.3323604166507721,"215":-2.722877025604248,"216":-0.33892446756362915,"217":-1.2746219635009766,"218":0.9965515732765198,"219":1.2315222024917603,"220":0.09241864085197449,"221":-0.8737759590148926,"222":0.662611186504364,"223":0.7996422052383423,"224":-0.6027004718780518,"225":-0.15659889578819275,"226":0.33236628770828247,"227":-0.45744991302490234,"228":-2.843067169189453,"229":0.23688429594039917,"230":0.8129388689994812,"231":1.6347993612289429,"232":0.519616961479187,"233":-0.9808815717697144,"234":1.0567636489868164,"235":-0.6275457739830017,"236":-0.4349658191204071,"237":0.5339291095733643,"238":0.03699200600385666,"239":-0.6574180722236633,"240":-0.35404103994369507,"241":0.4837823510169983,"242":1.5983362197875977,"243":-1.5402902364730835,"244":0.14121179282665253,"245":0.35573217272758484,"246":2.708493232727051,"247":-0.8766674995422363,"248":-1.9813591241836548,"249":-1.0157390832901,"250":-0.11921072751283646,"251":-1.7322458028793335,"252":-0.12445458769798279,"253":1.9836068153381348,"254":0.5494846105575562,"255":2.063079595565796,"256":-2.3537425994873047,"257":0.42763930559158325,"258":0.05031432583928108,"259":1.8596876859664917,"260":2.1650352478027344,"261":-1.3566533327102661,"262":-0.765313982963562,"263":0.09129679948091507,"264":-1.8136745691299438,"265":0.9998376369476318,"266":-0.052233222872018814,"267":-0.14423836767673492,"268":3.470627784729004,"269":-0.18949458003044128,"270":0.38609158992767334,"271":-1.8018162250518799,"272":0.8135570883750916,"273":3.0735554695129395,"274":-1.1426466703414917,"275":-0.6628711223602295,"276":-2.739966630935669,"277":0.6780262589454651,"278":-0.2239954173564911,"279":-1.549128770828247,"280":0.16393186151981354,"281":0.23926810920238495,"282":1.0063692331314087,"283":0.260937362909317,"284":2.089616060256958,"285":-1.8688727617263794,"286":0.905099093914032,"287":1.180614709854126,"288":0.21769604086875916,"289":2.9166927337646484,"290":0.13450799882411957,"291":-0.03623413294553757,"292":3.067976474761963,"293":1.7725621461868286,"294":1.5480278730392456,"295":-0.34836629033088684,"296":-1.041703701019287,"297":-2.1799373626708984,"298":0.98990797996521,"299":-0.8764391541481018,"300":-3.5931522846221924,"301":-1.6208540201187134,"302":-1.1458762884140015,"303":1.0709044933319092,"304":-2.4487414360046387,"305":1.5342042446136475,"306":2.1492042541503906,"307":2.191711664199829,"308":-0.9710755348205566,"309":1.0926947593688965,"310":0.7076111435890198,"311":1.5139802694320679,"312":1.6991982460021973,"313":-0.2743198573589325,"314":0.1565048098564148,"315":2.184006452560425,"316":-1.1621899604797363,"317":-0.925668478012085,"318":0.4754162132740021,"319":-0.40754789113998413,"320":1.1099140644073486,"321":1.206810712814331,"322":-1.1912158727645874,"323":-1.2616153955459595,"324":-1.785478115081787,"325":-4.182950496673584,"326":-2.169605016708374,"327":0.30048906803131104,"328":0.37929534912109375,"329":-2.506732940673828,"330":-2.1337311267852783,"331":-0.653443455696106,"332":-1.2015668153762817,"333":0.9498788118362427,"334":-1.9340710639953613,"335":2.082627773284912,"336":1.3284345865249634,"337":-0.04544501006603241,"338":1.7136576175689697,"339":-1.4692355394363403,"340":-2.2425036430358887,"341":1.5210877656936646,"342":-1.0169949531555176,"343":1.7088662385940552,"344":-0.3814021348953247,"345":-0.41703104972839355,"346":-0.5625855326652527,"347":0.8272302150726318,"348":-1.156485915184021,"349":-2.346060037612915,"350":-2.990964651107788,"351":0.532054603099823,"352":0.872249960899353,"353":-0.7995613217353821,"354":-1.7991844415664673,"355":0.6782316565513611,"356":-1.2376378774642944,"357":1.6217467784881592,"358":1.0353755950927734,"359":-0.20125190913677216,"360":2.1593966484069824,"361":-0.015765538439154625,"362":0.016417410224676132,"363":-0.42016297578811646,"364":1.573992133140564,"365":-0.17202457785606384,"366":-1.08199942111969,"367":0.7313503623008728,"368":-1.6302649974822998,"369":1.865578532218933,"370":1.0813226699829102,"371":1.1245267391204834,"372":0.7564694881439209,"373":-1.884465217590332,"374":1.2343403100967407,"375":-1.1691943407058716,"376":-0.8015138506889343,"377":-1.919818639755249,"378":0.635381281375885,"379":-0.26061221957206726,"380":1.7993476390838623,"381":1.611046552658081,"382":0.2223494052886963,"383":0.7813601493835449,"384":1.3742361068725586,"385":1.379925012588501,"386":1.463922142982483,"387":0.6241682767868042,"388":-1.6162500381469727,"389":-1.362980604171753,"390":0.4510423541069031,"391":-2.4431676864624023,"392":2.4984326362609863,"393":0.9776821136474609,"394":-0.20400436222553253,"395":0.8856132626533508,"396":-0.48717573285102844,"397":-0.14647427201271057,"398":2.1234471797943115,"399":1.008678674697876,"400":-0.33814939856529236,"401":0.6032227277755737,"402":-0.8801808953285217,"403":-1.499485969543457,"404":0.16617824137210846,"405":-0.2799629271030426,"406":0.31819143891334534,"407":0.8624415397644043,"408":-0.2514616847038269,"409":1.8827009201049805,"410":-0.18840238451957703,"411":1.6139723062515259,"412":-0.4395321309566498,"413":2.669105052947998,"414":0.816813051700592,"415":-0.9965342283248901,"416":-0.48760321736335754,"417":-1.7789692878723145,"418":-1.440112829208374,"419":1.9224281311035156,"420":0.02327735349535942,"421":0.24128302931785583,"422":-1.343225121498108,"423":1.0482258796691895,"424":-1.6851024627685547,"425":-0.8326905965805054,"426":-0.1063842847943306,"427":1.0629456043243408,"428":-0.7427874207496643,"429":0.9300096035003662,"430":-0.6231645941734314,"431":-0.12333939969539642,"432":-1.4267700910568237,"433":2.005565881729126,"434":1.4595913887023926,"435":1.2748435735702515,"436":-1.192531704902649,"437":2.292174816131592,"438":-1.9510470628738403,"439":0.22206708788871765,"440":-0.7362873554229736,"441":-0.8705267906188965,"442":0.27814626693725586,"443":1.2942008972167969,"444":-0.06413236260414124,"445":-1.5850672721862793,"446":-1.437273621559143,"447":-0.976266086101532,"448":-0.7730324268341064,"449":0.5416178703308105,"450":-0.33329129219055176,"451":-0.8317748308181763,"452":-0.5080465078353882,"453":0.5904176235198975,"454":0.29945990443229675,"455":0.2931385338306427,"456":-1.318394660949707,"457":-0.4677425026893616,"458":2.5835251808166504,"459":-0.03577764704823494,"460":0.48589372634887695,"461":0.8991070985794067,"462":0.5601247549057007,"463":-0.4566671550273895,"464":0.9199228882789612,"465":0.31351178884506226,"466":1.3140151500701904,"467":0.937240719795227,"468":-1.1169373989105225,"469":1.952441930770874,"470":0.8157588839530945,"471":-0.0767013430595398,"472":-2.0158731937408447,"473":-1.3996316194534302,"474":-0.8146845102310181,"475":0.5973813533782959,"476":-1.0488226413726807,"477":-1.6301342248916626,"478":-2.2506115436553955,"479":1.6904520988464355,"480":-3.1151633262634277,"481":0.006443483754992485,"482":0.12377950549125671,"483":0.5072351098060608,"484":0.09626735746860504,"485":-1.7000592947006226,"486":-0.2835216522216797,"487":-0.24282439053058624,"488":0.9061014652252197,"489":2.495920181274414,"490":1.4245935678482056,"491":1.910445213317871,"492":0.5732607841491699,"493":0.205736443400383,"494":-1.5263618230819702,"495":1.1002302169799805,"496":2.576197862625122,"497":0.4260905086994171,"498":-0.4138757288455963,"499":1.485572338104248,"500":0.8977715969085693,"501":-0.8507665395736694,"502":-0.6608278155326843,"503":-0.8585311770439148,"504":-0.8740354776382446,"505":1.7609764337539673,"506":-0.7754051685333252,"507":-0.05679928511381149,"508":-1.0998262166976929,"509":-0.44230225682258606,"510":1.6688432693481445,"511":-0.3074600398540497,"512":-0.6516324281692505,"513":-0.3010260760784149,"514":1.996421217918396,"515":-0.09280957281589508,"516":0.8898398876190186,"517":1.928148627281189,"518":0.4065650999546051,"519":-2.622225046157837,"520":-1.916427731513977,"521":-0.9892871379852295,"522":-0.35938939452171326,"523":1.2336962223052979,"524":1.5731239318847656,"525":0.1499311327934265,"526":0.5955379605293274,"527":0.10771594941616058,"528":-3.569441318511963,"529":0.5513192415237427,"530":-0.7155002951622009,"531":2.748584508895874,"532":0.7277891039848328,"533":-2.3400585651397705,"534":0.9393925070762634,"535":-0.996614396572113,"536":-0.4073570966720581,"537":-1.1663923263549805,"538":2.689042091369629,"539":-0.018432628363370895,"540":-2.1519625186920166,"541":0.2289065420627594,"542":1.243759036064148,"543":1.2239737510681152,"544":1.9584133625030518,"545":-0.0892316997051239,"546":-1.447701334953308,"547":-2.9210398197174072,"548":-1.2913440465927124,"549":-0.03342048078775406,"550":-1.8838551044464111,"551":-0.17981655895709991,"552":-1.322516679763794,"553":-1.2370103597640991,"554":-0.6300667524337769,"555":2.164886236190796,"556":0.39779675006866455,"557":2.413041114807129,"558":1.2608824968338013,"559":-0.09213532507419586}},"forgetHidden":{"rows":20,"columns":20,"weights":{"0":-2.413409471511841,"1":0.976239800453186,"2":-0.07588136941194534,"3":-0.321852445602417,"4":0.34354931116104126,"5":1.2444941997528076,"6":0.7901853322982788,"7":-2.797248601913452,"8":0.15731461346149445,"9":-1.8604274988174438,"10":1.2495415210723877,"11":0.5112678408622742,"12":0.12029800564050674,"13":0.43114250898361206,"14":-0.8795733451843262,"15":-0.8619853854179382,"16":0.07602647691965103,"17":-0.06362617015838623,"18":0.17668019235134125,"19":-0.4410191476345062,"20":0.25205540657043457,"21":1.015018343925476,"22":0.2284008115530014,"23":-0.8872220516204834,"24":0.06345271319150925,"25":-0.23319953680038452,"26":-0.3767356276512146,"27":-0.6878340840339661,"28":0.08438275754451752,"29":0.21369214355945587,"30":0.21019619703292847,"31":-0.1176362931728363,"32":0.5840119123458862,"33":-0.4802796542644501,"34":0.8013250827789307,"35":-0.21095873415470123,"36":0.12408436834812164,"37":-0.21174375712871552,"38":0.1617027372121811,"39":0.4162282943725586,"40":2.236271381378174,"41":-0.5018017292022705,"42":1.7070705890655518,"43":-1.0593372583389282,"44":-0.5788439512252808,"45":2.018090009689331,"46":1.2200957536697388,"47":-0.21360193192958832,"48":-0.40727269649505615,"49":1.9595075845718384,"50":-1.0051356554031372,"51":-1.959746241569519,"52":0.835565984249115,"53":-1.2797883749008179,"54":-1.8002030849456787,"55":-0.31979528069496155,"56":-0.3634328842163086,"57":0.10660438984632492,"58":-0.42231661081314087,"59":1.8103713989257812,"60":0.9988881945610046,"61":-0.17914754152297974,"62":2.9091882705688477,"63":6.736408233642578,"64":0.4800790548324585,"65":0.05591166764497757,"66":-0.5935583114624023,"67":-0.18511301279067993,"68":0.5913302898406982,"69":-1.507009506225586,"70":-0.7603561878204346,"71":0.6036785244941711,"72":2.7681422233581543,"73":0.7869269251823425,"74":0.06364759057760239,"75":1.124808669090271,"76":-0.13617584109306335,"77":1.5400772094726562,"78":-0.9990940690040588,"79":-3.626779556274414,"80":1.0562549829483032,"81":0.24400635063648224,"82":-0.5091543197631836,"83":0.5008747577667236,"84":-0.39549049735069275,"85":-1.1274402141571045,"86":-2.184030055999756,"87":0.8068234920501709,"88":0.4305746853351593,"89":0.19660133123397827,"90":-0.7420565485954285,"91":1.1372374296188354,"92":0.5176355242729187,"93":-0.08395156264305115,"94":0.04906109720468521,"95":-1.2047309875488281,"96":0.8969789147377014,"97":0.07668603211641312,"98":-0.4373898208141327,"99":0.371979296207428,"100":-1.5446356534957886,"101":-0.5305745601654053,"102":-0.05017108842730522,"103":-0.3627861738204956,"104":0.6566156148910522,"105":-2.1273293495178223,"106":-1.6191833019256592,"107":-1.1278886795043945,"108":0.0960364118218422,"109":0.49660390615463257,"110":0.36768844723701477,"111":-1.3752621412277222,"112":0.04067813232541084,"113":-2.4136948585510254,"114":0.46362796425819397,"115":1.1976126432418823,"116":0.49942290782928467,"117":-0.22655704617500305,"118":0.06684122234582901,"119":-1.2578779458999634,"120":1.8991680145263672,"121":-0.06663519889116287,"122":0.9042378067970276,"123":-2.3133950233459473,"124":-0.48265260457992554,"125":1.7719677686691284,"126":3.1483371257781982,"127":0.4474082887172699,"128":0.21614407002925873,"129":1.0451829433441162,"130":-1.1701946258544922,"131":3.3870394229888916,"132":1.3317484855651855,"133":-0.7274205684661865,"134":0.5256642699241638,"135":0.2784014046192169,"136":-0.5344230532646179,"137":0.08127160370349884,"138":0.15276961028575897,"139":1.7891325950622559,"140":0.19652052223682404,"141":0.7258604764938354,"142":0.2397674322128296,"143":0.5182701349258423,"144":1.0711778402328491,"145":0.7653892636299133,"146":-0.06216688081622124,"147":-1.32585608959198,"148":-0.1530454009771347,"149":0.42061617970466614,"150":-0.2252625972032547,"151":0.34803512692451477,"152":-0.7096816897392273,"153":0.23085400462150574,"154":0.4354250133037567,"155":-1.2531098127365112,"156":0.22324378788471222,"157":1.2669658660888672,"158":0.2504042387008667,"159":0.49079346656799316,"160":0.5214772820472717,"161":-0.9988691210746765,"162":0.3604279160499573,"163":0.9347065091133118,"164":0.6193639039993286,"165":0.900171160697937,"166":-0.37487927079200745,"167":-0.7205749154090881,"168":0.32234683632850647,"169":-1.1529215574264526,"170":-1.621069073677063,"171":-1.0917059183120728,"172":-0.11830200254917145,"173":1.0053945779800415,"174":-1.6165183782577515,"175":0.8032907247543335,"176":-0.46870481967926025,"177":0.20070935785770416,"178":0.18961578607559204,"179":-1.1034927368164062,"180":-1.0711537599563599,"181":0.30555620789527893,"182":1.0439987182617188,"183":-0.10758107900619507,"184":-0.32540398836135864,"185":0.04625805839896202,"186":0.6744441390037537,"187":-0.8118635416030884,"188":-0.8707450032234192,"189":2.818021297454834,"190":-1.1994389295578003,"191":-0.05683090165257454,"192":0.7270082235336304,"193":1.0886551141738892,"194":1.4900635480880737,"195":-1.9176058769226074,"196":0.012197786942124367,"197":0.685813307762146,"198":0.07593496888875961,"199":1.0177552700042725,"200":-1.7181907892227173,"201":-0.5158436298370361,"202":2.3944339752197266,"203":-1.0431263446807861,"204":0.7945621013641357,"205":3.1786344051361084,"206":1.8741636276245117,"207":1.4103542566299438,"208":1.2275458574295044,"209":0.397470623254776,"210":1.5929056406021118,"211":0.9755339026451111,"212":1.175378680229187,"213":-0.530160129070282,"214":0.3515324592590332,"215":0.5375093221664429,"216":0.3201255202293396,"217":0.1698758602142334,"218":0.5564493536949158,"219":-0.4326671361923218,"220":1.0604474544525146,"221":-0.8036537170410156,"222":-0.017886515706777573,"223":0.8759028315544128,"224":-0.33304548263549805,"225":1.617828130722046,"226":-0.04709716513752937,"227":-0.36794620752334595,"228":0.32709699869155884,"229":-0.749667763710022,"230":1.0911073684692383,"231":1.7314928770065308,"232":0.7347522974014282,"233":4.867340087890625,"234":-0.24209101498126984,"235":0.9026026725769043,"236":-0.11881204694509506,"237":0.6990184783935547,"238":0.5796754360198975,"239":1.4230536222457886,"240":-0.23406235873699188,"241":-1.610726237297058,"242":3.245692014694214,"243":-2.4607160091400146,"244":-1.3248865604400635,"245":5.4293341636657715,"246":5.563775539398193,"247":0.8752173781394958,"248":1.3236279487609863,"249":0.5032626986503601,"250":0.6875547170639038,"251":1.800000548362732,"252":0.7111133337020874,"253":0.7676527500152588,"254":0.19755056500434875,"255":0.3454592227935791,"256":0.5187334418296814,"257":1.4001250267028809,"258":2.55277943611145,"259":0.5101487636566162,"260":0.9018112421035767,"261":0.007812866941094398,"262":-0.8459632992744446,"263":2.7724575996398926,"264":-1.1208617687225342,"265":0.1798274964094162,"266":2.7780187129974365,"267":-0.15429100394248962,"268":-0.09667902439832687,"269":-0.00538098718971014,"270":0.09270653128623962,"271":2.559187650680542,"272":-1.2842804193496704,"273":1.4244154691696167,"274":-0.2945944368839264,"275":0.7929235100746155,"276":-0.07175202667713165,"277":0.10391554236412048,"278":0.6222153902053833,"279":3.0749669075012207,"280":0.1983802169561386,"281":0.17033818364143372,"282":-0.9361988306045532,"283":0.6546935439109802,"284":0.5541449785232544,"285":0.45795121788978577,"286":0.39321863651275635,"287":-0.12214672565460205,"288":-0.15170539915561676,"289":0.35926270484924316,"290":-0.4423695504665375,"291":0.8074314594268799,"292":-0.11479733884334564,"293":0.8978641033172607,"294":-0.14676550030708313,"295":1.4493749141693115,"296":-0.3678640127182007,"297":1.284928321838379,"298":-0.6514129638671875,"299":-0.13050352036952972,"300":-0.4814252555370331,"301":-0.7716930508613586,"302":-0.09044159203767776,"303":-0.3714119791984558,"304":-0.03121122717857361,"305":-0.3702567517757416,"306":0.1382572203874588,"307":-0.09034933149814606,"308":-0.44426435232162476,"309":-0.5973807573318481,"310":0.06430114060640335,"311":0.1489868462085724,"312":0.652644693851471,"313":0.28540608286857605,"314":0.5504523515701294,"315":-1.6307862997055054,"316":0.2279617339372635,"317":-0.3735787570476532,"318":0.7424602508544922,"319":0.21337305009365082,"320":-1.3256218433380127,"321":-1.0625749826431274,"322":-0.157318577170372,"323":0.08565942943096161,"324":-0.5720137357711792,"325":-0.5655657052993774,"326":-1.3185416460037231,"327":0.09601234644651413,"328":1.8639675378799438,"329":-1.7649141550064087,"330":-1.0055062770843506,"331":-1.229501485824585,"332":-0.3985268175601959,"333":-0.5495944023132324,"334":-0.4885815382003784,"335":1.6188766956329346,"336":0.20899824798107147,"337":0.2305886596441269,"338":0.16745389997959137,"339":-0.28254157304763794,"340":-1.3360410928726196,"341":-0.5745072364807129,"342":-0.3368818759918213,"343":0.691669762134552,"344":-0.8160215020179749,"345":-0.40985870361328125,"346":0.295594185590744,"347":-1.4225304126739502,"348":0.7410749793052673,"349":-0.7402399182319641,"350":-0.6342519521713257,"351":0.3026585578918457,"352":0.15521235764026642,"353":0.30346035957336426,"354":0.1407700479030609,"355":-0.013050747103989124,"356":-0.34225502610206604,"357":0.10425072908401489,"358":-0.12643682956695557,"359":0.3266991972923279,"360":1.7885116338729858,"361":0.33404117822647095,"362":0.3753194510936737,"363":-0.09163038432598114,"364":-0.9919863343238831,"365":0.5599120259284973,"366":0.3664357662200928,"367":-0.1295415163040161,"368":1.089856743812561,"369":-0.6330032348632812,"370":0.6058279871940613,"371":1.7863054275512695,"372":0.19090086221694946,"373":0.7749096751213074,"374":-0.27662214636802673,"375":-0.5512592196464539,"376":-1.3374662399291992,"377":-0.6808876395225525,"378":-1.0833213329315186,"379":-0.032031238079071045,"380":1.0768800973892212,"381":0.1128784567117691,"382":0.13892515003681183,"383":-1.4793449640274048,"384":0.6473727822303772,"385":0.5049989819526672,"386":0.433686226606369,"387":-0.016297854483127594,"388":0.18438170850276947,"389":-1.1485103368759155,"390":-1.2623342275619507,"391":-0.5917569398880005,"392":-0.4053623080253601,"393":-0.7119483947753906,"394":-0.845108151435852,"395":1.169854760169983,"396":-1.5529619455337524,"397":0.23633766174316406,"398":2.0282373428344727,"399":0.33683672547340393}},"forgetBias":{"rows":20,"columns":1,"weights":{"0":0,"1":0,"2":0,"3":0,"4":0,"5":0,"6":0,"7":0,"8":0,"9":0,"10":0,"11":0,"12":0,"13":0,"14":0,"15":0,"16":0,"17":0,"18":0,"19":0}},"outputMatrix":{"rows":20,"columns":28,"weights":{"0":-0.3077448606491089,"1":0.4033586382865906,"2":-1.7086188793182373,"3":-1.0520210266113281,"4":-0.8848130106925964,"5":-1.096007227897644,"6":3.7972190380096436,"7":0.3981075584888458,"8":-1.8762645721435547,"9":-1.7068934440612793,"10":-0.6073603630065918,"11":1.4458569288253784,"12":-0.2619461715221405,"13":0.2192835658788681,"14":-0.8361546993255615,"15":-4.014380931854248,"16":1.9674593210220337,"17":0.33227503299713135,"18":-7.331364631652832,"19":0.44500038027763367,"20":-0.8263503313064575,"21":-1.522128939628601,"22":0.8579071164131165,"23":0.9346605539321899,"24":-0.8973268270492554,"25":0.8208329677581787,"26":0.6182578206062317,"27":-0.7020046710968018,"28":0.6786519289016724,"29":1.0120198726654053,"30":-1.276246428489685,"31":-0.6913319230079651,"32":-0.37552985548973083,"33":-0.92971271276474,"34":2.174328327178955,"35":0.2375716120004654,"36":0.23880243301391602,"37":-2.7036945819854736,"38":1.421365737915039,"39":2.5409488677978516,"40":-1.2043486833572388,"41":-0.3059859573841095,"42":-1.020609736442566,"43":-5.520200729370117,"44":-1.3279815912246704,"45":-1.4634910821914673,"46":-0.27088046073913574,"47":-2.4133613109588623,"48":2.134096145629883,"49":-1.5253849029541016,"50":-0.738225519657135,"51":1.8931639194488525,"52":-0.5488696098327637,"53":-0.400730162858963,"54":1.1044162511825562,"55":0.017665831372141838,"56":-0.2005116492509842,"57":-0.5941034555435181,"58":-1.302038311958313,"59":3.021256923675537,"60":-0.5869235992431641,"61":-0.5117853879928589,"62":1.8180477619171143,"63":-1.7165305614471436,"64":-0.042341556400060654,"65":1.6548922061920166,"66":-0.7717638611793518,"67":-0.8661423921585083,"68":0.19628451764583588,"69":-1.5769145488739014,"70":1.6818054914474487,"71":0.015622207894921303,"72":0.9692265391349792,"73":-0.28762829303741455,"74":-6.120934009552002,"75":-1.538726806640625,"76":-1.772098422050476,"77":-2.4344000816345215,"78":-3.0214052200317383,"79":-1.1058629751205444,"80":-0.005289524793624878,"81":2.8425002098083496,"82":-0.35045796632766724,"83":0.8749855756759644,"84":0.16666696965694427,"85":1.901956558227539,"86":-1.4045701026916504,"87":0.6911367774009705,"88":-1.6037909984588623,"89":-0.15213164687156677,"90":-2.9436392784118652,"91":1.851357340812683,"92":2.06669020652771,"93":0.2410426288843155,"94":-2.6008520126342773,"95":-0.9485950469970703,"96":0.017385153099894524,"97":3.1621644496917725,"98":-0.11867942661046982,"99":0.21056261658668518,"100":-3.6393089294433594,"101":0.9770193696022034,"102":-0.8426692485809326,"103":0.09177032858133316,"104":1.3948264122009277,"105":0.819284975528717,"106":0.2814505100250244,"107":-3.602066993713379,"108":0.9225213527679443,"109":-0.8684231042861938,"110":-0.9986653923988342,"111":2.807817220687866,"112":-0.8012972474098206,"113":-0.2751867175102234,"114":0.5798376202583313,"115":0.48310643434524536,"116":-0.745923638343811,"117":-1.2725157737731934,"118":0.042847976088523865,"119":-2.0642027854919434,"120":-4.099804878234863,"121":0.23429381847381592,"122":1.4717401266098022,"123":1.1506762504577637,"124":1.1281057596206665,"125":1.0237207412719727,"126":-0.41785916686058044,"127":-2.482029676437378,"128":0.17760126292705536,"129":0.19198422133922577,"130":-0.8394368886947632,"131":1.7990983724594116,"132":-1.0775890350341797,"133":1.6961740255355835,"134":-0.5434174537658691,"135":-0.7728021740913391,"136":1.3029013872146606,"137":0.9265969395637512,"138":-2.7456681728363037,"139":2.986424446105957,"140":2.0156798362731934,"141":1.8594411611557007,"142":0.026543166488409042,"143":-2.2623724937438965,"144":0.05332018807530403,"145":-2.2783162593841553,"146":-0.9400980472564697,"147":0.16625532507896423,"148":-0.724399745464325,"149":4.307847499847412,"150":-3.340449571609497,"151":1.408129334449768,"152":-1.169827938079834,"153":1.7071579694747925,"154":1.263363242149353,"155":1.0581893920898438,"156":-1.3253291845321655,"157":-2.55840802192688,"158":-3.483170986175537,"159":1.9215725660324097,"160":0.3043840229511261,"161":-1.1768745183944702,"162":-2.9369521141052246,"163":-1.4900883436203003,"164":3.646998167037964,"165":1.4670639038085938,"166":-1.309274673461914,"167":0.19309870898723602,"168":-3.638420343399048,"169":2.998518705368042,"170":2.427224636077881,"171":1.6504548788070679,"172":0.8207162618637085,"173":-0.9124853014945984,"174":0.7462784051895142,"175":-0.10785727202892303,"176":3.8764071464538574,"177":0.6640697121620178,"178":0.11532720178365707,"179":-0.002007177332416177,"180":-1.1063743829727173,"181":-1.4017351865768433,"182":0.466509073972702,"183":-0.7948458790779114,"184":-1.0214753150939941,"185":-0.6232545971870422,"186":-0.22907261550426483,"187":-1.1285970211029053,"188":1.0373413562774658,"189":-1.771647334098816,"190":-1.4762648344039917,"191":-2.394596815109253,"192":0.5571704506874084,"193":0.5416406393051147,"194":1.2370508909225464,"195":0.7317751049995422,"196":-0.16490206122398376,"197":-1.6096079349517822,"198":-2.626173973083496,"199":0.5745506286621094,"200":-1.4861690998077393,"201":0.14857590198516846,"202":-0.15025494992733002,"203":0.17408357560634613,"204":-2.7685115337371826,"205":-1.658057689666748,"206":1.002659797668457,"207":0.22223016619682312,"208":1.6347609758377075,"209":-0.22780194878578186,"210":-0.672783374786377,"211":0.6535188555717468,"212":1.8743083477020264,"213":0.9983339905738831,"214":-0.6266301274299622,"215":-0.14689819514751434,"216":-0.4127219617366791,"217":1.8426637649536133,"218":0.7003093361854553,"219":-0.11838466674089432,"220":0.15128375589847565,"221":-0.5856382846832275,"222":-1.2845925092697144,"223":-1.4321359395980835,"224":-1.9650839567184448,"225":-2.8431859016418457,"226":-1.5953621864318848,"227":-1.3371363878250122,"228":2.0378174781799316,"229":-1.5971628427505493,"230":0.3374806344509125,"231":-1.582054615020752,"232":-1.8714394569396973,"233":1.7742514610290527,"234":3.5976226329803467,"235":0.19602912664413452,"236":-0.24250851571559906,"237":-1.6499184370040894,"238":3.7868359088897705,"239":1.7067254781723022,"240":-0.04774973914027214,"241":0.520497739315033,"242":-0.7434465885162354,"243":1.7866311073303223,"244":-0.6314253211021423,"245":-3.613687038421631,"246":-1.5467430353164673,"247":0.8184930682182312,"248":-1.334682583808899,"249":0.13813813030719757,"250":0.2908358871936798,"251":0.1939222663640976,"252":-1.0819060802459717,"253":0.43554937839508057,"254":-0.08926335722208023,"255":0.7279017567634583,"256":0.45106041431427,"257":2.598253011703491,"258":-0.4194980263710022,"259":-1.1108455657958984,"260":-1.9582196474075317,"261":-1.854605793952942,"262":-0.9711934924125671,"263":2.388947010040283,"264":-1.7693400382995605,"265":-1.1942814588546753,"266":-3.981794595718384,"267":1.1214542388916016,"268":1.1089832782745361,"269":-0.2055441290140152,"270":0.9850968718528748,"271":0.9586094617843628,"272":-0.4100082218647003,"273":-2.993711471557617,"274":0.23445408046245575,"275":0.6976830959320068,"276":0.39503949880599976,"277":-2.7787227630615234,"278":-0.5475831627845764,"279":-1.3621584177017212,"280":1.480825662612915,"281":-1.5816335678100586,"282":0.5725941061973572,"283":1.4475047588348389,"284":-1.1358550786972046,"285":-0.8249390125274658,"286":-1.8454539775848389,"287":-1.485399842262268,"288":-3.3830740451812744,"289":2.8410844802856445,"290":0.34406396746635437,"291":1.6365946531295776,"292":0.45732811093330383,"293":-0.31522372364997864,"294":-0.3632163405418396,"295":0.3695838749408722,"296":-0.673065185546875,"297":0.9755393862724304,"298":-0.6911237835884094,"299":-0.3590089976787567,"300":-3.391939640045166,"301":-0.8509435653686523,"302":0.8150891661643982,"303":-0.5089618563652039,"304":4.605402946472168,"305":-0.8836705088615417,"306":-1.1898512840270996,"307":2.210890531539917,"308":-0.7684350609779358,"309":0.2937431037425995,"310":0.10657183080911636,"311":-1.1220382452011108,"312":3.70466685295105,"313":1.7349036931991577,"314":-2.311297655105591,"315":-1.3648780584335327,"316":-0.6973201036453247,"317":-0.44847583770751953,"318":-1.7303041219711304,"319":-1.0258160829544067,"320":1.9032988548278809,"321":2.8904531002044678,"322":-1.4443504810333252,"323":-2.0631704330444336,"324":-1.836915135383606,"325":2.3744139671325684,"326":2.0203497409820557,"327":0.7268862128257751,"328":-1.2573699951171875,"329":-1.3799623250961304,"330":2.379503011703491,"331":-0.13595861196517944,"332":0.45126742124557495,"333":2.250460147857666,"334":3.0123188495635986,"335":-1.047736406326294,"336":-1.8338508605957031,"337":0.7945128679275513,"338":-1.2400871515274048,"339":0.24431467056274414,"340":2.1238183975219727,"341":0.04865359514951706,"342":-3.4180517196655273,"343":-0.7802169322967529,"344":1.6943659782409668,"345":-0.8863181471824646,"346":0.7979928851127625,"347":0.6920645833015442,"348":-0.8984214067459106,"349":0.09751874208450317,"350":-2.1170926094055176,"351":2.045057535171509,"352":-0.04849576950073242,"353":0.6176450252532959,"354":0.11117631196975708,"355":-1.9577909708023071,"356":0.6605052947998047,"357":-2.523308753967285,"358":-2.418083667755127,"359":-0.2134006768465042,"360":1.1798690557479858,"361":-1.142332911491394,"362":0.9891063570976257,"363":-0.864815890789032,"364":0.057214245200157166,"365":3.0162956714630127,"366":-0.6368873715400696,"367":1.2075045108795166,"368":0.2187316119670868,"369":0.5910947322845459,"370":-3.0672552585601807,"371":-0.6313920617103577,"372":3.1228466033935547,"373":0.763794481754303,"374":-0.82478928565979,"375":-3.5749387741088867,"376":-1.3016269207000732,"377":1.634135127067566,"378":2.2749438285827637,"379":0.5045799016952515,"380":1.2994493246078491,"381":-0.4290195405483246,"382":-2.6073505878448486,"383":-1.0609017610549927,"384":0.31840571761131287,"385":-1.9783658981323242,"386":-1.0498228073120117,"387":-0.8740395903587341,"388":-1.3938249349594116,"389":-0.07642486691474915,"390":-0.44877055287361145,"391":-0.32510483264923096,"392":1.8717474937438965,"393":-1.1840802431106567,"394":-1.4673322439193726,"395":1.9014203548431396,"396":-2.9272003173828125,"397":1.9205694198608398,"398":-1.0835391283035278,"399":-1.8897680044174194,"400":-2.1403613090515137,"401":0.17354662716388702,"402":1.0433915853500366,"403":1.363366723060608,"404":2.3266706466674805,"405":1.9441028833389282,"406":-1.775442123413086,"407":0.22135215997695923,"408":2.575108051300049,"409":0.7457553148269653,"410":-1.1046311855316162,"411":1.3723472356796265,"412":-0.10405316948890686,"413":0.7174018621444702,"414":2.284292221069336,"415":-0.05658857524394989,"416":-0.28125298023223877,"417":-1.3516889810562134,"418":-1.2556322813034058,"419":-0.0246979221701622,"420":-1.9186816215515137,"421":-2.2934179306030273,"422":-1.523276448249817,"423":-1.8891745805740356,"424":-2.344789981842041,"425":0.9390151500701904,"426":1.0470458269119263,"427":0.7891263961791992,"428":-0.6952807307243347,"429":-3.176666498184204,"430":0.4928620755672455,"431":1.3645206689834595,"432":1.3086191415786743,"433":1.0775021314620972,"434":-1.3316041231155396,"435":-1.6639809608459473,"436":2.035978078842163,"437":-0.5497633814811707,"438":-1.6069778203964233,"439":0.37446996569633484,"440":1.0099796056747437,"441":-0.07117484509944916,"442":-1.271858811378479,"443":4.8848676681518555,"444":-1.4810038805007935,"445":1.312660813331604,"446":-0.07884838432073593,"447":-1.8049794435501099,"448":0.846097469329834,"449":-2.027665615081787,"450":-0.33081483840942383,"451":-0.12468793243169785,"452":-5.200416564941406,"453":1.109654426574707,"454":-0.44050106406211853,"455":0.22648046910762787,"456":-1.2037044763565063,"457":-2.501220703125,"458":-0.8240559101104736,"459":-0.739453136920929,"460":-0.17317964136600494,"461":-0.28663286566734314,"462":-1.298906683921814,"463":0.742901086807251,"464":1.0504709482192993,"465":1.1927454471588135,"466":0.8777431845664978,"467":-0.21605916321277618,"468":1.6763867139816284,"469":-0.19762158393859863,"470":-0.07298605889081955,"471":1.9677026271820068,"472":1.9752572774887085,"473":-5.299056053161621,"474":-1.5591036081314087,"475":0.7371783256530762,"476":-0.0542105957865715,"477":-3.5302538871765137,"478":2.184962272644043,"479":-1.2808135747909546,"480":-1.3147894144058228,"481":1.5391461849212646,"482":0.282240629196167,"483":1.3596504926681519,"484":-1.8248997926712036,"485":0.7912420630455017,"486":0.6925553679466248,"487":3.1083202362060547,"488":0.12399127334356308,"489":-0.09095010161399841,"490":-1.4612104892730713,"491":-1.3953860998153687,"492":0.6530292630195618,"493":2.23368501663208,"494":4.138650894165039,"495":-1.7933186292648315,"496":-1.41421377658844,"497":1.1076645851135254,"498":0.2397182136774063,"499":2.4351842403411865,"500":2.2790846824645996,"501":-2.5859999656677246,"502":0.28842344880104065,"503":-3.215712547302246,"504":1.561532735824585,"505":-0.4328378736972809,"506":2.276461601257324,"507":-1.6237740516662598,"508":-0.8184662461280823,"509":1.6186062097549438,"510":-2.4516761302948,"511":0.3537684977054596,"512":0.21471841633319855,"513":1.1092509031295776,"514":-2.59505033493042,"515":-0.21703365445137024,"516":-2.607146978378296,"517":-1.8735448122024536,"518":-0.5915266871452332,"519":2.22151780128479,"520":0.022560618817806244,"521":-1.039168357849121,"522":-1.3164522647857666,"523":-0.9685949087142944,"524":-1.8082634210586548,"525":0.7433226704597473,"526":2.251631736755371,"527":-0.9598588943481445,"528":1.84818696975708,"529":1.9561426639556885,"530":-1.3546020984649658,"531":-3.0138392448425293,"532":-0.6943418383598328,"533":1.1840145587921143,"534":-2.009906053543091,"535":2.2469005584716797,"536":1.3806755542755127,"537":2.387713670730591,"538":-2.113903522491455,"539":-0.6211432218551636,"540":3.2685604095458984,"541":0.1732156127691269,"542":-2.6205735206604004,"543":0.15953810513019562,"544":2.0880024433135986,"545":0.5079193115234375,"546":-0.4109012186527252,"547":-1.389015793800354,"548":-0.08829033374786377,"549":-1.0629727840423584,"550":-1.4266855716705322,"551":0.34705623984336853,"552":2.2710163593292236,"553":-2.0761609077453613,"554":-1.426138997077942,"555":-1.9977459907531738,"556":0.8434751033782959,"557":1.6350263357162476,"558":0.4947567284107208,"559":0.6994966864585876}},"outputHidden":{"rows":20,"columns":20,"weights":{"0":1.3980408906936646,"1":2.861996650695801,"2":0.46998080611228943,"3":0.44482383131980896,"4":-0.6939011216163635,"5":1.8203803300857544,"6":0.8298575282096863,"7":-1.7742040157318115,"8":-0.3398149013519287,"9":5.86177396774292,"10":-0.8083738088607788,"11":-4.171412944793701,"12":-1.9196001291275024,"13":1.7047715187072754,"14":-0.25936782360076904,"15":1.1590577363967896,"16":-1.2892706394195557,"17":2.755441427230835,"18":-1.5255035161972046,"19":0.4831961691379547,"20":0.9915276169776917,"21":0.9783746004104614,"22":-0.3344215452671051,"23":1.9914919137954712,"24":-2.2121472358703613,"25":-0.9112688899040222,"26":0.8590810298919678,"27":-0.2004166841506958,"28":-1.5366379022598267,"29":0.06622403115034103,"30":-0.6185812950134277,"31":2.568706750869751,"32":2.624358892440796,"33":0.2909688353538513,"34":0.4096699059009552,"35":1.3785016536712646,"36":-1.0714104175567627,"37":0.5463537573814392,"38":-1.2497773170471191,"39":-0.7826058268547058,"40":-0.24739564955234528,"41":0.1454458385705948,"42":-1.9857913255691528,"43":1.3752514123916626,"44":1.8456697463989258,"45":1.0677971839904785,"46":0.34882616996765137,"47":2.5938668251037598,"48":3.9394330978393555,"49":0.6580455899238586,"50":1.3383283615112305,"51":2.6009626388549805,"52":2.246472120285034,"53":2.76271653175354,"54":0.6871489882469177,"55":2.9415981769561768,"56":-3.9852724075317383,"57":-2.0522685050964355,"58":0.8741742968559265,"59":-2.1140992641448975,"60":-0.14982669055461884,"61":0.24590705335140228,"62":-3.9195804595947266,"63":-2.928628921508789,"64":-1.1347906589508057,"65":4.216522693634033,"66":0.6936975121498108,"67":-0.6703783273696899,"68":-0.5286156535148621,"69":0.05450731888413429,"70":-1.5144751071929932,"71":1.3471550941467285,"72":-3.804877519607544,"73":-1.7948142290115356,"74":-0.14959383010864258,"75":0.32950612902641296,"76":-1.2646236419677734,"77":-1.2422794103622437,"78":-1.3548507690429688,"79":-0.5835793614387512,"80":3.2591323852539062,"81":0.419813334941864,"82":0.48311129212379456,"83":2.404226779937744,"84":3.230710744857788,"85":-0.6205831170082092,"86":-1.3301727771759033,"87":-1.1659889221191406,"88":-1.3965321779251099,"89":-1.8178954124450684,"90":-0.4310516119003296,"91":-0.020563334226608276,"92":-1.9280720949172974,"93":2.0897696018218994,"94":1.82203209400177,"95":3.2765965461730957,"96":-1.8280497789382935,"97":1.174526572227478,"98":0.1651887148618698,"99":-0.1102454885840416,"100":0.2544020712375641,"101":-1.2022076845169067,"102":0.8856985569000244,"103":1.11534583568573,"104":2.4400439262390137,"105":-1.205570936203003,"106":0.4878951907157898,"107":-0.7206354141235352,"108":-0.4406598210334778,"109":0.24937133491039276,"110":-2.2457358837127686,"111":2.8273468017578125,"112":1.5222662687301636,"113":-0.4150395393371582,"114":1.9056566953659058,"115":0.23475028574466705,"116":0.761240541934967,"117":1.0418354272842407,"118":0.03688626363873482,"119":-0.23479820787906647,"120":-0.7350034117698669,"121":1.4610010385513306,"122":1.1756603717803955,"123":-3.7352347373962402,"124":0.4961347281932831,"125":-3.9806456565856934,"126":4.597631454467773,"127":0.8112917542457581,"128":6.525111198425293,"129":2.0503997802734375,"130":-1.4936789274215698,"131":4.347982883453369,"132":-0.5491052865982056,"133":1.4821664094924927,"134":-0.7726631164550781,"135":-2.691528081893921,"136":3.2894721031188965,"137":-3.5909245014190674,"138":0.6037715077400208,"139":1.62019944190979,"140":0.5551407337188721,"141":-0.8269328474998474,"142":-1.068151593208313,"143":-0.7868905663490295,"144":0.399313747882843,"145":1.3635807037353516,"146":-0.3522755205631256,"147":-0.18724776804447174,"148":-0.224178284406662,"149":0.00735689839348197,"150":-0.6512467861175537,"151":-0.22784151136875153,"152":-1.7252423763275146,"153":-0.28636181354522705,"154":0.9297053217887878,"155":-1.4600857496261597,"156":-1.1775805950164795,"157":0.9955275058746338,"158":0.368228554725647,"159":0.23801013827323914,"160":2.0417888164520264,"161":-1.2819266319274902,"162":0.5629528760910034,"163":-1.6757005453109741,"164":2.059863567352295,"165":-4.843005657196045,"166":-3.8955724239349365,"167":3.0785112380981445,"168":-0.8570135831832886,"169":2.443713426589966,"170":-4.917296886444092,"171":-1.867171287536621,"172":-2.8837451934814453,"173":-3.8242905139923096,"174":-1.4613513946533203,"175":-0.9244681000709534,"176":-0.6473436951637268,"177":2.782773971557617,"178":-1.656080961227417,"179":-4.2403883934021,"180":2.158839464187622,"181":2.359126567840576,"182":2.091623067855835,"183":-0.04404822364449501,"184":-0.17147858440876007,"185":0.1665663719177246,"186":-0.4579746723175049,"187":0.9300631284713745,"188":0.41800108551979065,"189":1.4135905504226685,"190":0.7340456247329712,"191":1.4742165803909302,"192":3.3522894382476807,"193":2.062119245529175,"194":-0.046624865382909775,"195":-0.356358140707016,"196":-0.012215585447847843,"197":-0.6002123951911926,"198":0.5095843076705933,"199":1.671948790550232,"200":0.6736170053482056,"201":-0.30639857053756714,"202":2.0583271980285645,"203":0.18352128565311432,"204":1.0008553266525269,"205":0.33947908878326416,"206":-3.3986361026763916,"207":5.0252366065979,"208":-1.2313188314437866,"209":2.0588526725769043,"210":-0.9423853754997253,"211":-0.7517933249473572,"212":0.663382887840271,"213":0.6441322565078735,"214":-1.543130874633789,"215":0.4464859962463379,"216":1.485203742980957,"217":0.40011832118034363,"218":-0.09794178605079651,"219":0.8429234623908997,"220":1.499474287033081,"221":0.28959426283836365,"222":-0.024326186627149582,"223":0.34454140067100525,"224":-0.4606875777244568,"225":0.8382712602615356,"226":1.5847288370132446,"227":1.5922045707702637,"228":0.7009817361831665,"229":2.674083709716797,"230":1.4131102561950684,"231":-0.1918266862630844,"232":-0.3685694932937622,"233":-1.156729817390442,"234":-0.43539929389953613,"235":-0.10002090781927109,"236":-1.8000162839889526,"237":0.4516022205352783,"238":0.5335234999656677,"239":1.1266230344772339,"240":-1.2603272199630737,"241":-0.852567732334137,"242":-0.5469034910202026,"243":1.471785068511963,"244":-0.6247556209564209,"245":-0.05920390039682388,"246":-4.175230979919434,"247":2.056230306625366,"248":2.200317144393921,"249":0.1735006719827652,"250":-3.1796271800994873,"251":-3.934410572052002,"252":3.0262770652770996,"253":1.0798802375793457,"254":-0.4733807146549225,"255":-1.8918511867523193,"256":-2.1203997135162354,"257":1.0190783739089966,"258":-0.7988366484642029,"259":-2.194157838821411,"260":0.5391921997070312,"261":0.6728320121765137,"262":-0.46486184000968933,"263":1.843387246131897,"264":0.9050197601318359,"265":0.8480238914489746,"266":2.5286474227905273,"267":1.6773205995559692,"268":2.699758529663086,"269":0.3624638020992279,"270":-0.19865114986896515,"271":0.005562041886150837,"272":0.34596747159957886,"273":-0.5312400460243225,"274":-1.761558175086975,"275":0.08495026081800461,"276":-2.3941702842712402,"277":0.269191712141037,"278":-0.19296932220458984,"279":-1.83027982711792,"280":1.186398983001709,"281":-1.7481502294540405,"282":-3.596311569213867,"283":2.0118134021759033,"284":0.632194459438324,"285":1.2753828763961792,"286":-1.3612221479415894,"287":-0.6527829170227051,"288":3.8146228790283203,"289":-0.38573336601257324,"290":-0.9976229667663574,"291":1.309523105621338,"292":-0.14719180762767792,"293":3.5006940364837646,"294":3.6819710731506348,"295":2.6030831336975098,"296":-3.2829909324645996,"297":-0.2634374499320984,"298":1.217989444732666,"299":-2.340243339538574,"300":0.3591601550579071,"301":0.7395447492599487,"302":-3.674391269683838,"303":0.15039095282554626,"304":0.9257885813713074,"305":1.256916880607605,"306":-0.8073015213012695,"307":-0.21207594871520996,"308":-0.6996373534202576,"309":-1.329118251800537,"310":-1.7643907070159912,"311":0.9373524785041809,"312":1.060369610786438,"313":-0.03516549617052078,"314":0.16209784150123596,"315":-1.176162838935852,"316":-1.6723971366882324,"317":-0.5365379452705383,"318":0.18765777349472046,"319":-0.6992104649543762,"320":-0.013454419560730457,"321":0.3188606798648834,"322":-0.42941415309906006,"323":0.6645397543907166,"324":1.6778115034103394,"325":0.30576422810554504,"326":0.23268282413482666,"327":-0.9356708526611328,"328":0.48357895016670227,"329":-0.9212125539779663,"330":-3.8150634765625,"331":0.7155874967575073,"332":2.533921480178833,"333":2.2425413131713867,"334":-1.0357033014297485,"335":0.45102232694625854,"336":-0.9054243564605713,"337":-0.21856141090393066,"338":-1.0022974014282227,"339":1.526533842086792,"340":1.1504642963409424,"341":-0.42973870038986206,"342":0.23099276423454285,"343":0.9501197338104248,"344":1.2991896867752075,"345":0.5354605317115784,"346":-3.370537042617798,"347":-0.7335952520370483,"348":-0.06128440424799919,"349":-1.5531307458877563,"350":-1.3491111993789673,"351":-0.8399505019187927,"352":3.963547945022583,"353":1.2908411026000977,"354":-1.4952023029327393,"355":-0.7426099181175232,"356":-2.2945122718811035,"357":-2.4390957355499268,"358":3.8858494758605957,"359":2.689511299133301,"360":-0.39241188764572144,"361":-2.0328850746154785,"362":0.2549140155315399,"363":-1.8948184251785278,"364":-0.4629930257797241,"365":1.0580776929855347,"366":-2.6194119453430176,"367":-1.1936520338058472,"368":-2.8915464878082275,"369":-3.230072259902954,"370":-0.23284168541431427,"371":0.40092936158180237,"372":0.22892321646213531,"373":-1.6571643352508545,"374":1.5298285484313965,"375":3.1999807357788086,"376":3.270860195159912,"377":2.0396506786346436,"378":0.6624234914779663,"379":0.9643557667732239,"380":0.017662420868873596,"381":0.17717380821704865,"382":1.3225129842758179,"383":-0.6373936533927917,"384":1.8688244819641113,"385":1.1132516860961914,"386":0.4508077800273895,"387":0.8854395151138306,"388":2.7872772216796875,"389":-0.4969208836555481,"390":2.4756131172180176,"391":-1.5007634162902832,"392":1.233731746673584,"393":-1.3701368570327759,"394":0.18528306484222412,"395":-0.6592394709587097,"396":0.0726713240146637,"397":0.5962386727333069,"398":0.08782575279474258,"399":-1.1525087356567383}},"outputBias":{"rows":20,"columns":1,"weights":{"0":-0.37987402081489563,"1":0.23590782284736633,"2":-0.7887633442878723,"3":0.1246025338768959,"4":0.051436521112918854,"5":-0.2948582172393799,"6":-0.2899581789970398,"7":-0.12419205158948898,"8":-0.5404112935066223,"9":-1.1220639944076538,"10":0.1364237517118454,"11":-0.03573882207274437,"12":-0.7144271731376648,"13":-0.4876618981361389,"14":0.08005751669406891,"15":-1.0757328271865845,"16":0.6723393201828003,"17":0.7384312152862549,"18":0.08867049217224121,"19":-0.1215285062789917}},"cellActivationMatrix":{"rows":20,"columns":28,"weights":{"0":-0.21138650178909302,"1":0.7348814606666565,"2":0.09727147221565247,"3":1.2408256530761719,"4":-0.027408242225646973,"5":-0.9116790890693665,"6":0.10464474558830261,"7":0.10630043596029282,"8":0.19327086210250854,"9":-1.46321702003479,"10":-0.9357727766036987,"11":-0.3844228684902191,"12":0.17935973405838013,"13":-0.3078513741493225,"14":0.5058936476707458,"15":-1.0263175964355469,"16":-1.2502981424331665,"17":-0.942833423614502,"18":1.8675258159637451,"19":-0.7889673113822937,"20":1.7432540655136108,"21":-1.2738828659057617,"22":-0.6630063056945801,"23":-0.3882763385772705,"24":-0.15555264055728912,"25":-0.09232968091964722,"26":-0.0688338577747345,"27":0.37009263038635254,"28":-0.845389187335968,"29":-0.13184526562690735,"30":0.10951056331396103,"31":-1.3948718309402466,"32":1.4413813352584839,"33":-1.8059993982315063,"34":-0.7829141020774841,"35":-1.2263330221176147,"36":-0.9281339645385742,"37":0.7644939422607422,"38":0.012663372792303562,"39":1.2529726028442383,"40":-0.02321936935186386,"41":0.08151750266551971,"42":0.392868310213089,"43":-1.3478621244430542,"44":-0.9343159794807434,"45":-0.6712941527366638,"46":-1.4818357229232788,"47":0.1971503347158432,"48":-1.106073021888733,"49":-0.8082347512245178,"50":-1.1718093156814575,"51":0.3687034845352173,"52":0.5372061133384705,"53":0.3219340741634369,"54":0.2755171060562134,"55":-0.741078794002533,"56":-0.5572121143341064,"57":-0.6507089138031006,"58":-0.13742947578430176,"59":-0.6534520983695984,"60":-0.7951452732086182,"61":-0.7778327465057373,"62":-0.08049838244915009,"63":-0.833233654499054,"64":0.8346041440963745,"65":-0.7292450070381165,"66":1.9228671789169312,"67":-1.0946005582809448,"68":-0.7887212634086609,"69":0.3436218798160553,"70":0.780288577079773,"71":0.3425997793674469,"72":0.8379262685775757,"73":0.043807365000247955,"74":0.22236129641532898,"75":0.28574734926223755,"76":2.9871408939361572,"77":1.1647781133651733,"78":-0.9133380651473999,"79":0.32549163699150085,"80":-0.2314220666885376,"81":1.8115335702896118,"82":0.8688338994979858,"83":-1.6583993434906006,"84":-0.0094678346067667,"85":-0.14847181737422943,"86":-0.9393994808197021,"87":-0.2350204885005951,"88":0.6347888708114624,"89":-0.4020093083381653,"90":0.6605156064033508,"91":0.9426094889640808,"92":1.1022791862487793,"93":-0.3431597352027893,"94":-0.7593634128570557,"95":-0.09568667411804199,"96":-2.5026164054870605,"97":-2.2441494464874268,"98":2.9034016132354736,"99":0.756203293800354,"100":0.5654841661453247,"101":2.237427234649658,"102":0.570558488368988,"103":-2.6923062801361084,"104":-0.43982139229774475,"105":-2.1908607482910156,"106":0.03326357528567314,"107":0.7878772020339966,"108":1.81730318069458,"109":-0.4463304579257965,"110":1.2208551168441772,"111":0.8533299565315247,"112":-0.6065102815628052,"113":0.36735856533050537,"114":-1.0655814409255981,"115":-0.5648634433746338,"116":-0.7538430690765381,"117":0.7368654012680054,"118":0.40044230222702026,"119":-1.2804094552993774,"120":1.1362065076828003,"121":-0.9437097311019897,"122":0.16861295700073242,"123":-0.5357826352119446,"124":0.817997395992279,"125":0.15244744718074799,"126":0.9071242809295654,"127":0.30861178040504456,"128":0.4478929340839386,"129":-1.0221127271652222,"130":-1.8869681358337402,"131":-1.7152796983718872,"132":-0.8177738189697266,"133":-0.251750648021698,"134":-1.2520220279693604,"135":-0.10954547673463821,"136":-0.07151046395301819,"137":-0.8348833322525024,"138":0.5517435669898987,"139":0.8357067704200745,"140":-0.14821837842464447,"141":-1.108471393585205,"142":1.3390905857086182,"143":-0.2111412137746811,"144":0.5284788012504578,"145":-0.5833020210266113,"146":1.556868076324463,"147":0.7798014879226685,"148":0.21478396654129028,"149":0.27704182267189026,"150":2.3389060497283936,"151":-1.3214232921600342,"152":2.0616071224212646,"153":1.7427092790603638,"154":0.37491375207901,"155":0.19644635915756226,"156":0.4440403878688812,"157":1.4973106384277344,"158":2.37825608253479,"159":1.2155592441558838,"160":0.9345719218254089,"161":-0.4852600395679474,"162":0.02458818070590496,"163":0.40040719509124756,"164":0.12414418160915375,"165":0.8644592761993408,